784
300
-0.208856 -0.0840512 0.430334 0.335784 -0.375043 -0.164866 -0.141195 -0.186569 -0.199644 0.0222342 -0.421798 -0.216908 -0.356932 0.0910732 -0.463325 0.276268 -0.116722 0.191624 0.265439 0.271972 -0.27159 -0.0462176 -0.0248083 0.288108 -0.223302 0.213952 -0.396044 -0.200225 0.402328 -0.156779 -0.479462 -0.0920898 0.322722 0.334614 0.355702 -0.145597 0.118443 -0.3673 -0.0441229 0.168326 0.236898 -0.19685 0.422859 -0.195352 0.111815 0.166868 0.475212 -0.274235 0.288632 -0.465677 -0.285398 0.164716 0.103731 0.139678 0.0443013 0.378295 -0.446454 0.154071 0.300656 0.345802 -0.19485 0.30755 0.44106 -0.350475 -0.28954 -0.0521277 -0.302123 -0.0498745 0.252619 0.208009 -0.158149 -0.489016 -0.487425 0.369769 0.442904 0.215154 0.402484 -0.455959 -0.137717 -0.093324 -0.25026 0.0102258 -0.460211 -0.487683 -0.484063 -0.369437 -0.0272355 -0.199573 -0.381491 -0.181579 0.401699 0.00612322 -0.131354 -0.0676969 -0.475103 -0.171784 0.375985 0.441298 -0.342473 -0.394388 0.341924 -0.130117 -0.441566 -0.195176 -0.141022 0.491303 -0.421802 -0.185067 -0.115946 -0.238215 -0.154724 -0.139931 -0.107401 0.195578 0.417606 0.253091 0.178872 0.471454 -0.491443 -0.152347 -0.222858 -0.0418092 0.0793131 -0.0855073 0.136054 0.200257 -0.129875 0.288193 0.47934 0.429647 0.119294 -0.0763288 0.195956 -0.230473 -0.363938 -0.436671 -0.289413 -0.397219 -0.129362 -0.322434 -0.218215 0.282179 0.01063 -0.37635 -0.420806 -0.475003 -0.433 0.328754 0.410257 0.0159705 0.214562 0.497378 0.35936 0.0443823 0.1404 -0.0530584 0.382227 0.277455 0.285272 0.452993 -0.46155 -0.215213 -0.381852 -0.218642 0.386051 0.308715 0.253197 0.339488 0.391673 0.233488 0.156247 0.276228 0.114822 -0.106081 0.134086 -0.15707 0.0177198 -0.372722 0.251695 0.0688222 0.38168 -0.363321 -0.436794 -0.348879 -0.188786 0.32932 -0.352824 0.0631145 0.21632 0.397931 0.0152595 0.324318 0.189842 -0.487673 0.00409006 0.471887 -0.183398 -0.257347 -0.363551 -0.183028 0.104735 -0.330871 0.274876 -0.309352 -0.237042 -0.349274 0.451146 0.022714 -0.095669 -0.369073 -0.497585 0.368523 -0.295191 0.0225455 0.193398 0.449037 -0.4773 -0.0854353 0.451862 0.300569 -0.450811 0.310375 -0.227643 -0.352768 0.323668 0.315785 0.305515 0.00156895 0.230755 0.280413 0.292628 -0.131859 0.286554 -0.468545 -0.223868 -0.348949 0.379479 0.0148166 -0.345221 0.259921 -0.037075 -0.47607 -0.398592 -0.458957 0.450335 0.49047 0.125954 -0.0794735 -0.0501882 -0.362204 0.418788 0.0153486 0.184683 0.230988 -0.144022 -0.370502 -0.0873883 0.450059 -0.330844 0.243647 -0.0119258 0.43636 -0.383998 0.185126 -0.0569 -0.380902 -0.309978 0.241209 0.116844 -0.224751 -0.120019 -0.0975225 0.0865942 0.397527 -0.370778 0.0577648 -0.245909 0.139642 -0.263034 0.268777 0.193501 -0.497705 -0.161349 -0.169824 -0.0104699 -0.485171 0.381312 0.0518136 -0.409829 0.370493 -0.34796 0.255922 -0.461392 0.223721 -0.262837 -0.031373 0.161289 -0.036991 0.15012 -0.237989 
300
-0.21505 0.368929 -0.000930105 0.460799 -0.164427 -0.184904 -0.36307 -0.102612 -0.210615 -0.2977 0.0441853 -0.237816 -0.149165 -0.170692 -0.432804 -0.372955 -0.0995518 -0.224889 -0.0503981 0.11602 0.0443583 0.419723 0.201842 -0.212155 0.232219 0.34403 -0.305656 -0.377271 -0.022578 -0.161766 -0.401248 -0.253089 -0.249096 0.290143 0.0483333 -0.373946 0.0221263 -0.259719 0.427745 0.205555 -0.391847 -0.472766 0.376483 -0.358059 0.0524565 -0.264975 -0.18181 0.133317 -0.477445 -0.437116 0.0445503 -0.307827 -0.266534 0.100878 -0.491753 0.041485 -0.0566626 0.0366649 -0.142392 -0.238846 -0.370421 0.421901 0.108753 -0.110243 -0.442571 -0.152587 0.377153 -0.0484263 0.0875577 0.133497 0.421373 0.365951 0.284209 0.218886 0.366106 0.242035 0.131113 0.111151 -0.0371856 0.0662313 -0.459386 0.371085 -0.0543396 0.00124423 0.431865 -0.17093 -0.108223 -0.397361 0.171049 -0.373699 -0.0134084 -0.358065 0.287969 -0.347408 -0.00623133 0.213854 -0.485333 0.407058 0.0772805 0.366207 -0.456899 -0.471861 -0.2777 0.323995 -0.0332207 0.300301 0.171576 -0.0748425 0.219706 -0.205653 0.0930047 -0.00498825 0.128529 -0.206262 0.268716 -0.487851 -0.339921 -0.335165 -0.0153756 -0.43339 -0.321725 -0.279112 0.176583 -0.0231293 0.458496 -0.186923 0.29336 0.333133 -0.200859 0.364588 0.124448 0.0422504 0.396499 -0.418297 0.0654815 -0.0274008 0.432464 0.491345 0.180519 0.147136 -0.180237 0.294271 -0.292267 -0.35601 0.0575552 -0.193579 -0.0366379 -0.106555 0.186526 0.312881 0.0767286 -0.27573 -0.405046 -0.0102727 0.422669 -0.137157 0.00291762 -0.214193 -0.477952 -0.441663 0.345071 0.476201 0.0291349 -0.161026 -0.159099 0.382163 -0.0184522 -0.201911 -0.224803 0.392798 0.43511 -0.219192 -0.429152 0.355058 0.447881 -0.145131 0.256373 -0.0803857 0.281917 0.142938 0.0765063 0.137294 -0.0231773 0.465623 -0.060676 0.192699 -0.0866877 -0.320052 -0.176952 0.359559 0.125615 -0.371179 0.41175 0.244337 -0.264809 0.279278 0.253223 -0.282864 0.145066 -0.29371 -0.26502 0.466117 0.208313 0.314993 -0.46708 0.249285 -0.14329 0.370078 -0.0871403 0.157518 0.000327474 0.357592 0.14135 -0.437531 0.0572464 -0.427048 0.226283 0.181154 0.277312 -0.285189 0.00274486 -0.18051 0.277953 0.291658 0.0676013 0.130185 -0.158482 0.205675 0.242472 0.270398 -0.223836 -0.432696 -0.399149 0.0200972 0.306989 0.357173 -0.286053 0.498363 -0.0605902 0.244065 -0.409192 -0.0446243 -0.019776 -0.119181 2.64083e-05 -0.294728 0.236957 0.00389545 -0.0636093 -0.163832 -0.118415 0.136246 0.0925143 -0.424313 0.223553 -0.089323 0.449271 -0.0786299 0.22523 -0.429603 -0.105872 -0.216231 -0.344685 0.173274 -0.0959751 0.400557 0.439436 0.125451 0.0683222 -0.454568 -0.115009 -0.120726 0.373096 -0.0655051 -0.306138 -0.249855 0.336643 0.15877 0.098568 0.420679 0.277428 -0.042139 -0.0805983 -0.162158 0.455153 0.158498 0.332814 0.351544 -0.29745 -0.236905 -0.0294757 0.0215647 0.383246 0.330629 0.151741 0.295844 -0.268418 -0.0981953 -0.472009 0.0552711 
300
-0.201328 0.0586744 -0.170515 0.457534 0.225662 0.305742 -0.307598 0.433841 0.201605 -0.356573 0.226169 -0.334198 0.485456 0.317917 -0.135988 -0.332339 -0.102683 0.272346 0.25153 -0.107136 -0.352925 -0.469588 -0.202235 0.0765632 -0.0257941 -0.3378 0.131356 -0.243362 -0.274237 -0.0322843 -0.0524005 0.0231821 0.424333 0.254941 0.159043 -0.378952 -0.347247 0.0587376 0.323496 0.152585 0.0166139 0.138039 0.106145 -0.439217 0.325855 0.19236 -0.199246 -0.444147 0.361569 0.176323 0.356771 -0.414426 0.150268 -0.313451 -0.24114 0.323242 -0.257675 -0.300019 0.0286517 -0.316832 -0.205651 0.457183 0.2314 -0.342437 0.10983 0.496247 -0.173222 0.0573513 -0.359556 0.15376 0.349405 0.258288 -0.261482 -0.309055 0.126016 0.271018 -0.0375521 -0.0368074 0.0593252 -0.250943 -0.298228 0.0718416 0.0529973 -0.328564 -0.0164999 0.260196 -0.223051 -0.103643 0.325917 0.151023 0.171797 0.420227 0.00815772 0.278076 0.0882355 -0.11977 0.26015 0.262774 0.371759 -0.475247 0.240206 0.233258 0.0840311 -0.447491 0.189535 -0.00752031 0.250157 0.265096 0.117588 -0.475435 0.0874408 -0.0620998 -0.00983949 -0.0760621 0.313464 -0.0898374 -0.026785 -0.150274 -0.439213 -0.0873989 -0.0377493 0.236065 -0.436944 0.409484 0.209637 0.369182 0.297092 -0.479084 0.0704234 0.109129 0.356729 0.399763 0.192146 -0.0785699 0.106939 0.00824241 0.187143 0.246379 0.206406 0.0650712 -0.205548 0.146764 0.189067 0.344068 0.310083 -0.251389 -0.407521 -0.394732 0.0561881 0.14575 0.499698 -0.162737 -0.0568626 0.374381 0.0693907 0.499544 0.327042 -0.107472 0.36438 -0.456604 0.428483 0.114621 0.494554 -0.206703 -0.117443 0.457872 0.492874 0.0496792 0.402857 -0.0205832 0.338974 0.387026 0.00111926 -0.416641 0.223965 0.0632684 0.247656 0.161022 -0.300802 -0.407288 -0.236552 0.26415 -0.333428 0.306771 -0.471728 0.423196 -0.0562055 -0.0520754 0.180712 0.111841 -0.317002 -0.211098 0.462223 0.0860657 0.168019 -0.120318 -0.00459527 -0.00051961 0.0987182 0.145018 0.125579 -0.070344 -0.339361 0.423271 0.0894655 0.185316 -0.0480274 0.355317 0.265208 0.18083 -0.32072 -0.262798 0.0210219 0.149724 -0.443746 -0.310047 -0.288186 -0.434415 0.324202 -0.245212 0.203111 0.454104 -0.194436 0.337958 -0.259926 -0.142359 -0.409148 0.0831309 -0.13793 0.475989 0.387143 -0.118317 -0.163698 -0.360368 -0.390997 0.000667882 0.11148 -0.439212 0.106858 -0.257429 -0.226257 -0.0174078 0.0853917 -0.287356 0.242895 0.0152157 0.40768 -0.035671 -0.233351 -0.092579 0.478536 -0.147512 -0.285515 0.0264575 0.463838 -0.348762 0.477532 -0.216659 -0.14575 -0.0878802 -0.177068 0.1888 -0.103239 0.0330575 -0.0573385 0.325532 0.281892 0.440872 -0.282925 -0.439158 -0.245766 -0.169997 -0.169667 0.123346 0.229942 -0.190647 -0.266883 -0.313208 0.405035 -0.0973431 -0.0296978 -0.165761 0.263183 -0.334698 -0.321951 -0.333994 -0.26151 -0.226557 0.273092 -0.140449 0.33718 0.333104 0.0390778 -0.134138 0.157812 -0.178033 0.307058 0.0344343 0.253272 0.290371 
300
-0.497852 0.277259 -0.132045 0.0745119 -0.00324176 -0.00399116 -0.0818278 -0.325634 0.466217 -0.311287 0.0643469 0.102614 -0.140579 0.0412851 0.273234 0.391973 0.198244 0.442913 -0.308144 0.366639 0.331093 0.403847 0.287292 -0.335161 -0.294308 -0.470493 -0.4716 0.449602 0.331314 0.302226 0.0629975 -0.443742 0.229089 -0.473611 0.287875 -0.49009 -0.229831 -0.132372 0.248718 -0.106342 -0.230572 -0.0308046 0.421639 0.111087 0.455258 -0.423879 -0.176485 -0.177246 0.304906 -0.478313 0.372532 -0.413471 0.0847737 -0.499727 0.0130961 0.304305 0.204005 -0.35321 -0.156837 0.105704 0.0653269 0.219291 0.483156 -0.285659 -0.426011 -0.322819 0.22509 -0.0664721 0.164533 0.307295 -0.244258 0.191828 -0.0834422 -0.345728 0.316716 -0.0478161 -0.0263097 0.183203 -0.144517 -0.240343 0.410281 0.389299 0.130795 -0.0153437 -0.174138 0.422862 -0.0421337 0.161742 -0.016907 0.115898 0.244653 0.464505 -0.287224 -0.0396929 0.102794 -0.462608 0.352016 0.422849 0.0457568 -0.0334138 -0.37596 -0.225407 -0.0954938 0.436835 -0.280407 -0.0320502 -0.213946 0.338991 -0.119843 0.0275804 -0.15067 -0.127859 -0.367332 0.266914 -0.337169 0.0664288 -0.414972 0.433384 0.317623 -0.151197 -0.24566 -0.206952 -0.110721 -0.0750673 -0.0358771 0.35239 -0.392869 -0.171088 0.255614 0.0305844 0.223682 -0.359714 0.167466 0.214126 0.00796199 0.131123 0.136934 -0.0156004 -0.267427 -0.267484 -0.392496 -0.135893 -0.112358 0.462347 0.353177 0.0650952 -0.251857 -0.453674 0.146653 -0.476276 0.177765 -0.187017 -0.276594 -0.325249 -0.447967 -0.455316 0.00870089 -0.0743313 -0.089432 0.48 0.0457348 -0.404677 0.157207 0.266794 -0.380178 -0.194341 0.412511 -0.35684 -0.36988 -0.354119 -0.0145124 0.137558 0.307573 -0.351027 -0.114787 0.21847 0.378644 -0.347057 0.487248 -0.423614 0.257463 0.243081 0.211272 -0.178806 -0.214303 0.104484 0.00461706 -0.346373 0.140955 -0.0446895 -0.0454764 0.350945 -0.16859 0.205781 -0.417419 0.0128165 -0.403679 -0.260106 -0.14162 -0.183327 0.188966 -0.0292884 0.225255 -0.285127 -0.476813 -0.243315 0.484589 -0.0376935 0.195317 0.217675 0.243435 0.235566 0.26372 -0.446901 0.131834 0.480007 0.214033 -0.456886 -0.310753 -0.306899 0.00500798 -0.162454 0.174803 -0.121522 -0.188854 0.42893 -0.240737 0.285136 -0.283316 -0.406048 0.253664 0.311285 -0.286915 0.363884 0.234302 0.267604 -0.0936173 -0.110657 0.186618 -0.178822 0.106631 0.0322815 -0.101349 -0.419705 -0.430369 -0.00785812 0.214051 0.196093 -0.0724605 -0.45337 -0.396376 0.486114 -0.0708448 0.156284 -0.274138 -0.256307 0.203215 0.138117 0.294518 -0.367247 -0.144964 -0.23424 -0.188697 -0.483988 0.273888 0.353214 0.0523603 -0.442726 -0.321875 0.400361 0.193791 -0.287306 0.224102 -0.395054 -0.464891 0.101338 0.0893342 0.351476 -0.227901 -0.387656 0.117832 0.298619 -0.363679 -0.164076 0.28477 0.0218043 0.283673 0.214661 -0.179974 -0.185227 -0.104119 0.115469 -0.357965 -0.180548 -0.0919148 -0.201168 0.415403 0.486333 -0.0449024 -0.0382878 
300
0.0139637 0.197359 0.114598 -0.107284 -0.00187395 0.0441623 -0.282222 0.316164 0.457769 -0.394623 -0.177494 -0.37024 -0.158885 0.339345 -0.413022 -0.0342845 -0.442222 -0.204529 0.17144 0.363993 -0.208244 0.483044 0.404352 0.0313902 -0.288497 -0.457081 0.303713 -0.381376 0.354263 0.0902607 0.373861 0.26325 -0.179742 -0.189679 0.157655 -0.147122 0.456024 0.259169 -0.119575 0.0347297 0.244488 0.287671 0.223343 -0.499018 -0.138515 0.0635996 -0.243708 -0.300527 0.140188 -0.332249 0.0283919 0.148904 0.404289 0.14311 0.048735 0.258336 -0.201541 0.19202 0.420802 -0.322703 0.476649 -0.476874 -0.0928676 0.227472 -0.386633 0.271391 0.199219 0.353911 0.126591 0.335115 -0.0547955 0.218207 0.486458 0.311675 0.362345 -0.109809 -0.442615 -0.334208 0.254812 -0.0748205 0.0663822 -0.00212633 0.404518 -0.232623 -0.497397 0.285332 0.141477 0.420675 0.0298642 -0.24787 0.0301933 0.030034 -0.229566 0.00374692 -0.224978 0.24874 -0.121527 0.125019 0.381118 0.0490689 0.137751 0.266711 0.043495 -0.0118666 -0.112331 0.476475 0.218158 0.445473 -0.395498 0.248734 -0.329803 0.140024 -0.492753 0.0683749 -0.188418 -0.0783391 0.0684516 -0.421749 0.0275613 0.0884607 -0.317015 -0.219992 -0.21486 -0.37858 -0.0194167 -0.00720123 -0.0320379 -0.115557 -0.011879 0.242451 0.157676 -0.0173823 -0.404548 -0.320484 0.287714 -0.251318 0.431497 0.335952 0.278551 0.225704 -0.115052 -0.136587 0.339532 0.0506154 0.0720522 -0.170847 0.351863 0.266232 0.109195 -0.218108 0.489343 0.192975 -0.318021 0.48482 -0.15942 0.0784576 -0.121352 -0.0445795 0.39242 0.3315 0.357016 0.181858 -0.0818856 0.305579 0.00765458 -0.381248 -0.168757 0.0121165 -0.314374 0.131561 -0.382345 -0.398667 -0.110791 0.396945 -0.485712 0.444212 0.0700373 0.136799 0.388826 -0.263867 0.471094 0.449755 0.303747 -0.297297 0.113812 0.217536 -0.392745 0.322438 0.113739 0.380799 -0.267178 -0.00399885 0.0977521 -0.0979618 0.231091 -0.0466268 0.349942 0.018895 0.0393043 0.161393 0.168481 -0.240211 -0.10601 0.00594884 -0.429191 -0.489348 -0.0268116 -0.247986 -0.399294 0.189531 -0.387841 0.422715 -0.359376 -0.20859 0.2147 -0.097174 0.474279 -0.272914 0.242249 0.326002 0.0849281 -0.467702 -0.407346 0.314736 0.199672 -0.197169 0.0984474 0.398189 0.381855 -0.353929 -0.481397 -0.271151 -0.0842017 -0.262724 -0.0864672 0.24418 0.156712 -0.0932244 0.422676 0.498734 -0.169072 -0.276193 0.420333 0.278071 0.250582 0.355166 -0.339919 0.159331 -0.483399 -0.201701 -0.166273 0.19266 -0.499818 -0.462542 0.333235 0.139997 -0.139545 0.0508637 0.209222 -0.0787694 0.399298 -0.34753 0.218557 0.0527599 -0.291395 -0.282459 -0.453443 -0.25257 -0.0603241 0.121614 -0.0246644 -0.115373 -0.407634 0.295466 0.451951 0.206636 -0.433877 -0.475751 -0.347516 -0.152398 0.312014 -0.0411756 0.423922 -0.453174 0.0796862 -0.242661 -0.0327111 -0.0628614 0.146862 0.309981 -0.429082 0.389395 -0.347924 -0.0054677 -0.0196727 0.196808 -0.174956 -0.104445 -0.231283 0.296324 
300
0.0556158 -0.168251 -0.482023 0.0173481 0.377119 -0.464212 0.212091 -0.305372 -0.359348 -0.439299 -0.328675 -0.189915 0.298366 0.23213 -0.133891 -0.132978 -0.337205 0.127118 0.139446 0.177852 0.249047 0.00248709 0.339939 0.414727 -0.128016 -0.138692 -0.252977 -0.0524078 -0.116964 -0.240148 -0.0451827 0.38927 -0.0940779 0.340068 -0.350878 -0.226754 -0.294001 -0.486525 -0.388271 -0.459996 -0.267612 0.100306 0.209542 0.36448 -0.244315 0.138418 0.0444969 -0.226098 -0.127741 0.208615 -0.00594087 -0.380801 0.496906 0.0459999 -0.230332 0.211058 0.257591 0.331518 0.103996 0.16772 -0.318619 -0.292319 0.0308368 -0.399749 -0.326613 -0.456891 0.028833 -0.397524 0.494122 -0.332314 0.0139841 0.0263285 0.155776 0.42924 -0.442734 -0.145767 0.0772091 0.436317 0.207436 -0.24486 0.245141 -0.472529 0.237838 -0.287912 -0.378149 0.30899 -0.216875 -0.448687 -0.482392 0.117636 0.164179 0.255379 0.376501 0.38232 0.344906 -0.383159 0.0440931 0.438602 -0.296388 -0.155013 -0.15085 0.347949 0.18695 0.0132166 -0.104481 -0.232624 0.345538 -0.192142 -0.250225 -0.48712 0.122818 -0.210339 -0.188286 -0.015488 0.00536909 -0.0277312 0.427207 0.0345364 -0.251405 0.467717 -0.349024 0.0579752 0.444411 0.337206 -0.329038 -0.30637 0.0233979 -0.0692462 0.387672 0.342641 -0.33099 0.385646 0.294892 0.486361 -0.253027 0.232933 -0.238571 -0.407311 -0.0545439 -0.309472 -0.223214 0.303171 -0.0677255 -0.342211 -0.335036 -0.126607 -0.31983 0.232095 -0.273213 0.234044 0.45131 -0.194879 -0.043824 0.459939 0.455725 0.355037 -0.00246045 0.0684582 0.41797 0.00202458 -0.331992 -0.0317536 0.38247 0.021979 -0.0820908 0.466114 -0.278019 0.0477248 -0.137768 0.473173 -0.415494 0.1091 -0.401426 -0.119435 0.0683072 0.267924 0.290385 0.474882 -0.123805 -0.323635 -0.158885 0.488432 -0.261894 -0.177019 -0.165172 -0.180249 0.326544 -0.237575 0.147597 0.130456 -0.291409 0.000750617 -0.175087 0.305677 0.242371 -0.326588 0.464644 0.247667 -0.384015 0.135094 0.00273392 0.0760823 0.375803 0.407657 -0.216651 -0.34879 0.115023 -0.135206 -0.122971 0.386117 0.184109 0.468881 0.134535 -0.22539 0.173131 0.481775 0.346608 0.224684 0.419798 -0.133123 0.228062 -0.0286994 0.378169 -0.0193725 0.0366263 0.346474 -0.0263257 -0.482131 -0.483297 -0.393597 -0.19842 0.361788 -0.224504 -0.39448 0.272722 0.0286568 0.261219 -0.0470642 0.141682 -0.252968 0.397893 0.0735387 0.0211031 -0.208416 -0.101703 -0.380748 -0.20463 -0.266731 0.0396043 -0.430064 0.357709 0.224866 0.207037 -0.238595 0.0297951 -0.0372119 -0.295776 -0.499829 -0.306207 0.398335 -0.371945 -0.0398472 0.270594 0.206869 0.270973 -0.0679918 -0.0901306 -0.240441 0.320303 0.180116 0.479254 -0.21963 0.26599 -0.460371 -0.272559 -0.330522 -0.120941 0.206891 -0.409377 -0.453894 -0.0075121 0.340598 0.0563708 -0.164672 0.15747 0.180346 -0.387375 0.254464 -0.169555 -0.0214006 -0.129086 -0.0312751 -0.0679279 -0.373365 -0.0735263 0.0440966 0.452118 0.0301813 -0.118749 0.431631 
300
-0.267424 -0.219214 -0.0892037 0.0137386 0.302855 0.234931 0.466657 -0.124608 0.277823 -0.496323 0.333387 0.394117 -0.436099 -0.442474 0.0508776 0.474404 -0.116162 0.393847 0.272841 -0.0598721 0.0633383 -0.0935071 0.253041 0.499842 0.0813981 -0.192181 0.146893 0.365592 0.107415 0.0113897 -0.00114566 0.434827 -0.438345 -0.362888 0.0497095 0.143621 0.276008 -0.038812 0.0573888 0.202503 -0.0224924 -0.440198 0.139858 -0.446458 -0.0724706 0.338227 -0.382751 0.365444 0.466975 0.198082 -0.356885 0.417404 0.036002 0.39464 -0.197838 -0.144649 -0.356185 -0.012304 -0.0828854 -0.427041 -0.0213972 0.10146 -0.171427 0.372785 -0.0515097 -0.370376 -0.429854 -0.112695 0.455771 0.200417 -0.24005 -0.118713 -0.102563 0.420992 0.0754017 0.0584671 0.390044 -0.453347 -0.433459 -0.156425 -0.172635 -0.0602565 0.00914735 -0.115344 0.0629517 0.103239 0.454868 0.364393 -0.0854107 -0.169084 0.155386 -0.43514 0.477208 -0.0305009 -0.493576 0.0422526 0.253295 -0.160969 -0.12671 0.0109221 -0.298737 -0.125557 -0.325379 0.460656 0.447733 0.329637 0.372299 -0.339168 0.184679 0.152844 0.22821 0.431718 0.0226826 0.051329 0.0778208 0.00566483 -0.430784 0.45679 0.2621 0.29936 0.448386 -0.166455 -0.471206 -0.200404 0.393683 -0.358728 -0.450932 -0.202292 0.181969 0.0892764 -0.120352 -0.45357 -0.281414 0.226033 -0.265295 0.414042 0.0593054 0.0253808 -0.184537 0.365157 0.0829655 0.398887 0.438193 0.323201 -0.0158712 -0.415125 0.327662 -0.0511614 -0.127086 0.462462 -0.318281 0.0563811 -0.0480158 -0.215964 0.397323 0.201733 -0.0978425 0.451684 0.0568142 -0.225113 0.106338 0.212364 -0.00964925 -0.496556 -0.30299 -0.284896 0.0435091 0.220126 0.444848 0.0372081 0.208936 0.260758 0.357614 0.220164 -0.33437 0.378906 0.00386857 -0.372439 0.219755 0.309023 0.495706 0.0961038 0.0180225 -0.00208973 -0.146881 0.171548 0.322158 0.198455 0.219413 -0.219484 -0.187383 -0.456271 0.200008 -0.36799 0.346898 0.47747 -0.299914 0.126204 -0.126517 0.0373143 -0.33853 0.198053 0.0788729 0.270294 0.286595 -0.202967 -0.129701 0.0732665 0.391579 -0.105016 -0.418968 -0.287227 0.226196 0.222942 0.0610487 -0.114054 0.306742 -0.384007 -0.369248 -0.239209 0.0443104 0.103652 -0.114887 0.0998374 0.00804659 0.469557 -0.352249 0.0808206 0.406822 0.456229 0.460402 -0.455145 -0.00793531 -0.0158627 -0.484375 0.376977 0.215703 0.170421 -0.049385 0.117826 -0.0665636 -0.356277 -0.292967 0.011323 0.263005 0.47263 0.409887 -0.302662 -0.230091 -0.0963472 0.0977515 -0.353906 0.353799 -0.413284 0.280644 -0.0245757 -0.192101 -0.106456 -0.0156001 -0.433374 -0.294623 0.438425 -0.283854 0.35621 0.175017 0.220889 0.364757 0.176128 0.359594 -0.398132 0.438197 0.163294 -0.164684 0.217552 0.110114 0.184902 -0.379737 -0.388543 -0.0165413 0.340057 -0.467878 -0.261553 0.325776 -0.439269 0.172818 0.167034 -0.160829 -0.0444894 0.214374 -0.0932629 0.0383873 0.45602 -0.100475 -0.111949 0.407666 -0.077223 0.0307335 0.198771 -0.22626 0.167337 
300
0.436562 -0.0737829 -0.0378998 0.169071 -0.400078 0.369238 0.499087 -0.333999 -0.491869 -0.148043 -0.141057 0.286291 -0.04917 0.0623092 0.0301444 0.348378 0.115893 0.243836 -0.353342 0.139484 -0.248452 -0.111674 0.296234 0.370768 0.183875 0.447276 -0.492659 -0.325353 0.0179821 -0.038313 -0.0757702 -0.436376 -0.0740354 0.173369 0.067542 -0.0709046 -0.0802477 0.0109077 0.109066 -0.490197 0.407131 -0.0976204 0.425108 -0.213812 0.394868 0.246937 0.487019 -0.424415 0.466718 0.387326 -0.457924 -0.013935 0.261059 -0.468952 -0.16296 -0.101859 0.242162 0.243197 -0.488339 -0.47083 -0.242378 -0.314339 -0.414772 -0.387566 -0.487329 -0.0910557 -0.446509 0.171172 0.13825 0.292023 -0.0164857 -0.128838 -0.00287057 0.318458 0.321882 -0.0463134 -0.13862 -0.367224 -0.121236 0.465363 0.185434 0.473365 0.0255 0.463858 0.249977 -0.401396 0.152516 0.321617 -0.0321264 -0.350735 -0.348735 -0.113726 0.0242718 -0.108494 -0.194927 0.329419 0.270593 -0.383222 -0.0483596 0.221148 -0.385765 -0.41088 -0.2514 0.331428 -0.458541 0.0205979 -0.110985 0.272735 -0.152546 -0.47473 -0.271255 0.406772 0.294999 -0.298124 0.132388 -0.121172 -0.205009 0.42464 -0.225211 -0.087024 -0.17216 0.351767 0.276826 -0.127496 0.0316564 0.131188 -0.11677 0.067557 0.341269 0.115598 -0.00663956 -0.308887 -0.334034 0.30365 -0.428815 0.29613 -0.455387 -0.35456 0.339912 -0.344835 0.251363 0.194601 -0.494583 0.123785 -0.416026 0.151393 -0.153872 -0.103182 0.296552 0.246355 -0.434346 -0.0741129 -0.00615088 0.0767467 0.287409 0.452966 -0.217639 -0.285011 0.473789 0.30967 0.316802 0.285739 -0.16774 0.214406 0.171715 -0.27844 0.22139 -0.414985 -0.287065 0.106793 -0.141863 -0.461478 0.273487 -0.152754 -0.325802 0.0960306 -0.357721 0.310284 0.051192 0.45134 0.460049 -0.230095 -0.266583 -0.298059 0.381374 0.227161 0.0862596 0.476069 -0.325633 -0.11502 0.450555 0.240981 -0.0864076 0.470984 0.0356636 0.30085 -0.466393 -0.451517 -0.101732 -0.00110882 0.0200028 -0.453406 -0.122474 -0.385245 0.392476 -0.306471 -0.347706 0.233687 0.359978 0.203762 -0.115469 -0.420314 0.427712 -0.464984 -0.450035 0.348129 0.232414 -0.358712 -0.0401648 -0.10787 -0.378448 0.0832243 0.0285574 -0.322754 0.0898799 -0.44162 0.365969 -0.368117 0.114914 0.433842 -0.00187893 -0.0947929 -0.252132 -0.357538 0.393945 -0.261681 0.261489 0.053899 0.346048 0.0457345 0.0434586 0.36542 0.19165 -0.0731613 -0.222266 -0.363461 -0.105289 0.0873928 -0.419525 0.00329535 0.241113 0.0803595 -0.070163 -0.393464 -0.164941 -0.147666 0.421293 -0.490872 -0.141714 -0.135382 -0.275007 -0.496867 -0.00611745 -0.351594 -0.0542208 -0.342884 -0.235074 -0.420783 0.297474 0.103196 0.37488 -0.0922655 0.169122 -0.119664 0.485925 -0.169213 0.448017 0.253027 -0.138588 0.394374 0.480294 0.221667 0.475304 0.202092 0.0761681 -0.075176 0.22821 -0.46055 -0.496325 -0.0862222 0.345938 -0.0759089 0.404234 0.382464 0.480088 -0.162531 0.437851 -0.372818 -0.297395 0.18387 
300
0.158545 -0.430164 -0.182814 -0.0501633 0.487915 -0.295353 -0.0406726 -0.406588 -0.482764 -0.13512 -0.347723 0.229357 0.3954 -0.46903 -0.174969 -0.49422 0.449106 0.127513 0.296216 -0.3154 -0.459845 0.159931 0.279133 0.119792 0.00616449 0.457423 0.469446 -0.465541 -0.355334 0.0114308 -0.127397 -0.1126 -0.477152 -0.344738 0.297921 0.284249 0.182661 0.137321 0.290689 0.204155 -0.286215 -0.193703 0.14595 -0.224123 -0.0775283 0.272117 0.3833 -0.214531 -0.499982 -0.369011 0.270981 0.326534 -0.119653 -0.253211 -0.0437656 0.457043 -0.238833 -0.228426 0.128929 0.471909 -0.0408016 -0.139325 -0.34355 0.213023 0.463264 -0.294709 -0.371763 -0.0421796 0.00498762 -0.4684 -0.174364 -0.141312 -0.438816 0.394291 -0.0468587 -0.0692478 0.343032 0.0600433 0.178409 0.355391 -0.248718 0.145443 -0.487054 0.0195775 -0.34312 -0.0693382 0.0991884 -0.419626 -0.0386985 -0.136031 0.194969 0.0442365 -0.287202 -0.168868 -0.307788 0.368662 -0.101234 -0.395593 -0.0265194 -0.236752 0.0850994 0.471524 0.24663 -0.270879 0.0450718 -0.305176 -0.419166 0.161321 -0.40693 0.293 0.299356 0.395955 0.162963 -0.469678 -0.112808 0.284107 -0.251756 -0.0787538 -0.197224 0.237013 0.450197 0.143236 -0.442817 -0.455546 -0.272193 -0.128259 0.168398 -0.0328793 0.359652 0.403151 0.392022 0.362602 0.344029 0.463425 -0.113843 0.48358 0.0191878 0.262 -0.289648 0.463212 0.0483444 0.174673 -0.20264 -0.103207 0.180229 -0.0993946 -0.175345 -0.246853 -0.125124 -0.495344 -0.177033 0.334034 0.406686 -0.2005 -0.286414 -0.355735 0.296785 0.164232 -0.390726 -0.124438 -0.236969 -0.459016 0.157842 -0.382872 0.19074 0.277684 -0.330076 -0.441015 0.320792 -0.182812 0.202466 0.284255 -0.314362 -0.126251 0.356743 -0.03097 0.333957 0.185468 -0.269665 -0.0861645 -0.195091 0.171167 -0.301662 0.2855 0.399425 0.210594 -0.0906102 -0.325392 0.391639 0.244974 -0.284437 -0.261759 -0.111944 -0.308984 0.32993 -0.476952 -0.0697787 0.220067 0.0969244 0.352076 0.162947 -0.219284 -0.363156 0.461667 -0.0814628 0.200358 -0.454872 0.2261 -0.250042 -0.177045 -0.229006 0.0815642 0.363783 -0.230802 -0.177033 -0.0310487 -0.0530216 0.0275254 -0.21193 -0.324886 0.46466 -0.326801 -0.331471 0.0171296 -0.447779 0.142456 0.369682 -0.414707 0.439874 0.364806 -0.172277 -0.248703 0.287065 0.34325 0.329604 0.229131 -0.399693 0.397716 -0.436262 -0.343218 -0.0727911 0.189334 -0.395937 -0.0915661 0.0615791 -0.0202751 -0.238149 -0.27933 0.0757534 -0.312354 -0.421484 0.357249 -0.42138 0.249252 -0.418684 0.0344362 -0.419556 0.162275 -0.0882284 -0.169795 -0.356575 0.103858 0.16505 0.207121 0.242856 0.344922 0.224836 -0.408445 -0.361716 -0.0916631 0.158727 -0.489146 -0.423273 -0.352512 0.365874 0.499992 0.420508 -0.29221 -0.460884 0.28908 -0.221215 -0.33948 0.0395148 -0.306759 -0.212853 -0.240787 -0.177051 -0.0784542 0.271098 -0.456317 -0.098544 -0.460732 0.407314 -0.282071 0.0728168 -0.0434806 -0.34207 -0.282532 0.22224 -0.0258231 
300
-0.463636 0.356456 -0.308466 -0.147308 0.32669 0.0647445 0.0899359 0.319716 -0.248918 0.379243 0.202794 -0.418886 0.21978 0.0286374 -0.452385 0.310863 -0.161204 -0.276883 -0.402203 -0.39524 -0.16833 -0.291236 -0.453259 -0.264129 -0.283829 -0.494278 -0.0738051 0.395704 0.167089 0.201388 0.18915 0.292768 0.0971959 0.253372 -0.411849 0.286712 0.392625 0.207813 -0.462697 -0.264387 0.0352308 -0.177833 -0.102418 0.481444 0.282104 -0.00297215 0.191504 0.216705 0.0726177 0.0275011 0.463227 0.469027 0.0434606 -0.495939 0.221818 0.327177 -0.388525 -0.445237 0.462777 -0.114244 0.410107 0.136289 -0.0698968 -0.0498865 -0.47149 -0.492006 0.302272 -0.223347 -0.078344 -0.203605 -0.421605 0.455349 0.142632 0.399565 0.437396 0.488447 -0.274739 -0.0281944 -0.0775575 -0.221743 -0.0555354 -0.384147 0.0437461 0.374273 0.286901 -0.0440121 0.000304612 0.246807 -0.204177 0.323298 -0.163758 -0.0441597 0.440664 -0.205757 -0.41308 -0.243037 0.249409 0.339632 -0.362629 -0.330535 -0.391691 -0.22443 0.204363 -0.159555 -0.0733284 -0.215231 -0.256553 0.295902 0.089421 0.361302 -0.158903 -0.13361 -0.48252 0.397224 -0.064609 0.0133644 0.0640188 0.394812 0.419912 0.107517 0.287086 -0.153073 0.00991516 0.308946 0.0397231 -0.13718 0.148953 0.0724004 0.00259171 -0.117501 -0.329335 -0.319297 -0.0336706 -0.277589 0.0685737 -0.0774683 0.264687 0.444728 0.300035 -0.362974 0.0638461 -0.477848 -0.484846 -0.412672 0.449467 0.0843073 0.297715 0.424983 -0.183252 -0.0780561 -0.20692 -0.48848 0.211338 0.103713 -0.0523088 -0.00718458 0.0492748 0.250709 0.122155 -0.380515 -0.375373 -0.44033 0.444687 -0.127673 0.474777 0.158146 0.495646 -0.350671 0.401564 -0.13315 0.345127 0.156737 0.053504 0.439497 0.477694 -0.409385 -0.423056 0.477265 0.411453 0.407618 -0.112139 -0.329622 -0.223201 -0.382286 0.359855 0.0714744 0.0585667 0.425968 -0.423022 -0.239707 -0.334792 0.111223 0.150213 -0.149517 0.35982 0.120684 0.267325 0.223768 -0.0258142 0.434269 0.408576 -0.312171 -0.115757 -0.300226 -0.00488351 -0.444465 -0.287791 -0.182768 0.333349 0.30869 -0.360091 -0.332853 0.496493 0.0927316 0.342213 -0.399134 0.309773 0.0637209 0.0347253 0.472338 -0.181365 0.137848 0.180855 -0.0803356 0.0933606 -0.253528 0.349261 -0.00721274 0.222301 -0.405468 0.0980758 0.0277858 -0.385404 0.490484 -0.0616919 -0.0389639 -0.0191473 0.341728 -0.276725 0.0153663 0.0722407 -0.304963 -0.247737 -0.434327 -0.0307109 -0.227689 -0.151571 0.291874 -0.273763 -0.443365 0.241483 -0.0630332 -0.0370158 0.186012 -0.29002 0.260319 -0.12048 -0.132284 -0.431833 0.142082 -0.205209 0.323605 0.206128 -0.196184 0.437131 -0.25966 -0.118507 0.392151 -0.326207 -0.291384 -0.257207 0.221547 0.223961 0.0193466 0.250016 -0.113203 -0.47023 0.473921 -0.315229 -0.30237 -0.489753 -0.385729 -0.455929 -0.0928679 0.38247 -0.358558 -0.316386 -0.0748053 -0.486346 -0.421324 -0.336416 -0.454206 -0.162061 0.453225 -0.461998 -0.0560208 0.0677165 0.477496 -0.311657 -0.435873 
300
-0.0821288 0.301107 -0.399693 -0.473186 -0.303735 -0.156867 -0.0729352 -0.256879 0.102585 0.20049 0.330138 0.287596 0.263607 0.309332 -0.0697802 0.245279 0.176006 0.251455 0.161795 -0.195764 0.0869444 -0.131923 -0.231076 -0.202892 -0.344765 0.156602 0.26627 0.45873 -0.152116 0.30738 0.195997 0.306689 0.320471 0.147711 -0.176608 0.343118 -0.349926 0.260865 -0.0569372 0.249043 0.258834 -0.437554 -0.275604 -0.427972 0.380764 0.247717 0.10545 0.458714 0.204447 -0.0332713 -0.443544 -0.458041 0.0363388 0.462902 0.0518933 -0.0105249 0.160433 0.00414747 0.371174 0.415416 -0.436142 -0.169202 0.300034 0.390998 -0.0390805 0.422612 -0.223068 -0.458105 -0.201886 0.175272 0.490916 -0.388564 0.315744 -0.387866 0.126024 -0.282154 -0.397873 -0.297904 0.126174 -0.496473 0.139016 0.339623 0.153537 -0.334699 -0.250005 -0.0544251 -0.00216805 0.117918 0.42991 -0.0802677 -0.0948696 0.417166 -0.417352 0.025631 -0.320889 0.418974 0.235555 -0.0159118 -0.427887 -0.0318026 -0.465822 -0.476168 -0.337574 0.462515 0.498858 0.130009 -0.136751 0.206306 -0.38092 -0.386412 -0.47281 0.0480279 -0.243768 0.17484 0.367214 -0.277609 -0.273002 -0.158187 -0.221527 -0.113836 -0.0217953 -0.447455 -0.259511 0.347291 -0.432984 0.10964 0.0865052 0.429428 0.107084 -0.148335 -0.139434 -0.219509 0.268491 0.4166 0.368315 -0.206917 -0.48244 0.0896649 -0.0945303 -0.121896 -0.239689 0.0839528 -0.468009 0.124233 0.475176 0.391497 0.0588665 0.458667 0.245796 -0.276896 0.37935 -0.15736 0.197084 0.43402 -0.0415325 0.335374 -0.320176 0.203897 -0.0802688 0.111398 -0.110258 0.256805 0.0916158 -0.0572557 -0.228803 0.395596 0.0998137 -0.319236 -0.0626535 0.193942 0.232674 -0.420795 -0.254618 -0.222861 -0.30398 0.385332 -0.280485 0.387747 0.0724902 0.348788 0.312809 0.385076 0.103547 0.413624 0.36864 0.105612 0.233143 -0.0700546 0.261304 -0.120979 -0.354293 -0.478296 -0.311233 -0.413215 0.424809 -0.421497 -0.320626 0.200988 -0.230293 0.213934 0.311182 0.368944 0.255556 -0.187897 0.0793098 -0.0561054 0.0509164 -0.16164 0.499718 0.491088 0.467767 -0.308915 0.0103201 0.204964 0.0813313 0.189087 0.0934578 0.153578 -0.345397 -0.459965 0.166971 0.299803 -0.307095 -0.283555 0.183358 -0.343784 -0.274081 -0.126259 0.06873 0.316482 -0.307128 -0.0218504 -0.318618 -0.0435068 -0.13188 -0.104354 0.454254 -0.239335 0.45281 0.0690288 -0.197116 0.0386155 0.257526 -0.212169 0.00422937 -0.315732 -0.15423 -0.4859 0.0247124 0.368193 0.0560972 -0.115988 -0.0806823 -0.181397 0.489895 -0.0627359 -0.419234 -0.479465 0.0716336 0.430591 0.387532 -0.293195 0.164114 0.398911 0.486228 -0.121434 0.0146986 -0.0683465 0.361175 -0.00791124 0.38318 0.389043 0.0635632 -0.34027 -0.161945 0.466389 -0.0572137 -0.0417712 -0.483221 0.381237 0.172189 -0.0572014 0.259571 -0.442466 0.0320213 0.213392 0.0595793 -0.444505 -0.0343498 -0.482343 -0.284291 -0.276381 -0.327401 0.0111326 0.380634 0.0729425 -0.14824 0.463523 -0.0940607 -0.077149 
300
0.117502 0.0735482 -0.0881239 -0.196304 -0.176668 0.362372 0.342539 -0.143787 -0.296092 0.0871106 -0.398375 0.233901 -0.493088 -0.18601 -0.422253 -0.0790229 0.378084 0.243075 0.374337 -0.418913 0.402004 -0.138132 -0.425723 0.189413 0.401983 -0.0282568 -0.217276 0.0137205 0.305313 -0.0978724 -0.29812 -0.259313 0.238615 -0.419232 -0.0878225 -0.225135 -0.134951 -0.367114 0.0219601 -0.305516 -0.481143 -0.334739 0.0670316 -0.2775 0.0519684 -0.250614 0.103049 0.00602437 -0.315332 -0.0244509 -0.036381 -0.179557 0.441499 0.330917 -0.137235 0.497072 0.209446 -0.0660866 -0.119082 0.397906 0.0527155 -0.156419 0.344762 0.226059 0.354406 -0.158566 -0.190629 -0.406259 0.0305931 -0.414293 0.0218028 0.0473731 -0.0522628 -0.0389626 -0.340968 -0.468315 -0.211086 -0.334439 0.481831 0.196907 0.235249 -0.125004 -0.214815 -0.486278 -0.118157 0.192156 -0.458348 -0.246491 0.26085 -0.0795339 0.307029 -0.268641 0.0439337 0.136085 -0.304506 -0.058106 0.110795 0.390158 -0.148768 0.110298 -0.445776 0.0392863 -0.30027 -0.493718 0.111401 0.0572241 0.386749 0.0503635 0.160292 -0.0580848 0.186324 -0.119143 -0.322892 -0.480108 -0.482254 0.0570552 -0.0298274 0.211674 0.209513 -0.091498 0.436162 0.441271 -0.172761 -0.131517 -0.0678218 0.123306 0.268262 -0.0439725 -0.446174 -0.0708775 0.392089 0.328338 -0.181902 -0.380705 -0.445932 -0.27352 0.0405225 0.282943 -0.455222 0.467794 -0.0395308 -0.0638743 -0.374495 0.279716 0.352532 0.344945 0.407724 -0.313478 0.273479 0.0888569 0.407074 -0.146869 -0.0796631 -0.24534 0.447602 -0.15964 0.286936 -0.170893 -0.426607 -0.338728 0.353809 -0.326158 -0.00903341 0.307498 0.285928 -0.293691 -0.120486 0.0321576 -0.0390062 0.411376 0.0067204 0.0581349 -0.251163 0.324852 0.416852 -0.0012377 0.254076 0.28038 -0.208148 -0.20385 -0.0378763 -0.331099 -0.147314 -0.126424 -0.328605 -0.257053 0.306749 0.227548 0.134509 0.152469 0.419616 -0.300899 0.0992391 -0.371351 0.178355 0.185524 0.318435 -0.238071 0.175247 0.207614 0.0138466 -0.0840742 0.200524 0.101967 -0.396766 -0.439608 0.16036 -0.394182 -0.131048 -0.226717 0.272406 -0.357126 -0.302468 -0.332639 0.201204 0.371693 -0.334469 0.0840671 0.423532 -0.155267 -0.462417 0.492771 0.0259521 0.0031486 -0.0512914 -0.0876144 0.00769432 -0.104879 0.454603 0.0545063 -0.49533 -0.0909993 -0.117324 0.469255 -0.0804893 0.467931 -0.233371 0.242303 -0.453392 -0.384319 -0.0120659 0.158131 0.122573 -0.264142 0.407884 0.363321 0.230713 -0.185335 -0.458806 0.353291 0.405992 -0.160083 0.0498925 0.394448 0.153336 0.456721 -0.361295 0.000531197 0.087602 -0.095135 0.454814 -0.0600414 0.237383 -0.266268 0.202933 -0.125705 -0.390307 -0.0530787 0.386966 -0.199095 0.416422 0.382255 0.40573 0.386296 -0.449294 0.09053 -0.193282 -0.478103 0.45712 -0.24819 -0.4876 -0.401917 -0.144146 -0.460718 0.0417406 -0.492466 -0.311818 -0.000404182 -0.314357 0.339719 -0.271314 -0.0843267 0.335685 0.353579 -0.175777 0.26924 0.178371 0.209153 0.485148 -0.220857 
300
-0.215332 0.169577 0.145573 -0.200199 0.0599114 0.389926 -0.256928 -0.284715 -0.110851 -0.400836 -0.420224 -0.342865 0.464797 0.487868 -0.352352 -0.33752 -0.368837 -0.231357 -0.00278115 0.361444 0.327817 -0.248334 -0.242934 -0.204716 -0.323478 -0.168243 -0.0706372 -0.136162 -0.323838 0.0426309 -0.00382986 0.108767 0.365712 -0.231864 -0.471793 -0.0756642 0.0649875 -0.0183621 0.123953 -0.221328 0.273047 0.217124 -0.0336064 -0.191235 0.470719 0.430388 0.323031 0.0930148 -0.23568 -0.0737733 -0.0963885 0.279089 -0.402921 0.340135 0.042129 -0.317902 -0.237248 -0.26466 0.456976 0.370068 -0.15775 -0.0850264 -0.18318 0.386839 0.0445197 0.0478493 -0.489431 0.42101 0.320379 -0.404379 -0.20277 0.00768033 -0.341564 0.183539 0.45512 -0.0955308 -0.351294 0.34303 0.439045 0.3099 0.106642 -0.109977 -0.024794 0.208196 0.2982 0.107441 -0.423995 0.0226885 0.237363 -0.343548 0.202576 0.342303 0.248363 0.184929 -0.148235 0.417949 -0.0684681 0.299427 0.34427 -0.0540649 0.294685 0.438405 0.0694526 -0.128412 -0.0704254 -0.431609 0.485252 0.229267 -0.135669 -0.25189 -0.349752 -0.117755 0.215923 -0.448656 -0.496977 -0.11578 0.232946 0.209418 0.458449 0.420898 0.329772 -0.463058 -0.266696 -0.00369377 0.238125 0.114866 0.276586 -0.331477 0.315017 0.383226 0.473507 -0.172746 -0.472597 -0.484092 0.421675 0.449359 -0.417558 0.363937 0.17447 0.126941 0.312359 0.247501 0.352283 -0.061901 -0.295067 0.319718 0.353312 0.392212 0.296931 0.00468395 -0.390022 0.187254 0.0338755 0.40359 -0.296175 0.279677 0.109165 0.188651 -0.227414 -0.251524 0.085525 -0.173954 0.339357 0.454792 0.286507 -0.410523 0.470157 -0.240806 -0.197524 0.365913 -0.497132 0.474098 -0.254784 -0.309324 -0.0665375 0.176714 -0.103266 0.0595944 -0.0686491 -0.386522 -0.292808 0.261883 0.0101557 -0.212704 0.0809607 -0.0311969 -0.297973 0.344996 0.442267 0.170154 -0.357678 -0.252308 -0.419046 -0.292291 -0.0645184 0.474582 0.4852 0.179615 0.0143446 -0.226431 0.0722369 -0.000317041 -0.253448 -0.0851438 0.218101 -0.093265 0.221381 0.297533 0.406982 -0.34448 -0.236949 -0.402413 0.32313 0.151711 -0.452396 -0.013251 0.045083 0.205562 0.236755 -0.154636 0.10654 -0.363246 0.471859 0.336632 -0.49289 -0.443773 0.440371 -0.133752 -0.210606 -0.345584 -0.254965 0.35295 -0.119919 -0.0471773 -0.333192 -0.129517 -0.357242 0.46787 0.0758922 -0.0276826 0.295487 -0.448715 -0.325006 -0.251491 0.344591 -0.367728 -0.45023 -0.308645 -0.0240713 -0.00837614 0.47548 0.0222343 -0.0951279 -0.223109 -0.247237 -0.334658 0.0465105 0.057408 -0.152181 -0.170804 0.152258 0.337811 0.268177 -0.132532 -0.426517 -0.492281 -0.276829 0.0382164 0.403149 -0.11239 0.0562602 -0.154777 -0.0231044 0.416348 -0.420072 0.0997877 0.00997935 0.00381526 0.208508 0.0729 -0.423015 -0.120052 0.432983 0.440503 -0.335885 -0.170517 -0.232282 0.220174 0.156753 -0.107051 0.0701258 0.361029 -0.273382 0.335454 0.182513 0.169177 0.258881 0.248981 0.0311841 0.397157 
300
-0.13376 0.118538 0.274168 0.18041 -0.188642 0.0450882 -0.357177 -0.44242 -0.265739 -0.284984 0.0329491 0.119085 -0.187668 -0.129027 -0.307105 0.336321 -0.474786 -0.262849 -0.0903404 -0.0589923 0.186454 -0.00468304 0.0259278 -0.438164 -0.173738 0.350896 -0.29092 0.0403023 -0.122765 -0.227105 -0.161153 -0.0289857 0.0645457 0.223444 -0.0113041 0.193613 0.392731 -0.0536455 0.200179 0.443281 0.32688 0.350518 -0.0386314 0.250257 0.274406 -0.350812 -0.318159 0.222756 0.162981 0.154882 0.15955 0.0200593 0.175292 -0.233224 0.387022 0.108579 -0.320043 -0.0348162 -0.172245 -0.162885 0.459361 0.00729925 -0.35238 0.405905 0.431048 -0.316527 -0.127374 -0.0427354 0.0693509 0.2986 -0.259549 0.426949 0.0161566 0.417403 -0.486959 0.366491 -0.241549 -0.108781 0.45941 0.249673 0.0819932 0.335185 -0.452715 -0.0662431 0.10581 -0.296213 0.388221 -0.154565 -0.474675 -0.161934 0.357103 -0.175665 0.458602 0.212253 -0.243338 0.343977 0.470638 0.0941355 -0.178849 0.389561 0.299596 0.491646 -0.10887 0.321329 -0.0530148 0.322786 0.424238 -0.395059 -0.250545 -0.0394898 0.0197556 -0.181519 -0.0305082 -0.220958 0.320422 0.438749 -0.298148 -0.321617 -0.406189 0.0629219 -0.398664 0.289499 -0.0299129 -0.135328 -0.156275 0.210357 0.474157 0.337332 -0.237928 0.457579 0.147639 0.448294 -0.378267 0.441401 0.382389 0.288265 0.495222 0.378675 0.0974296 -0.15121 0.379323 -0.292921 -0.0150429 0.371222 -0.130084 -0.342239 -0.488779 -0.344057 -0.169581 0.452144 -0.0871581 -0.434292 -0.424135 0.363117 -0.186932 0.488232 -0.493263 0.372796 0.477773 -0.355893 -0.446038 -0.316164 -0.275289 0.308969 0.139029 0.279553 -0.00495355 -0.494205 0.383308 -0.368709 0.239102 -0.106006 0.403607 -0.032477 0.226659 0.134869 0.0744495 -0.124201 0.140309 0.303195 -0.217941 0.381027 -0.317664 -0.244431 0.0465042 0.104798 0.0354946 -0.393949 0.116277 -0.116892 -0.269759 0.215244 0.421871 0.147409 -0.276339 0.0385237 0.273698 -0.40118 -0.462721 0.0877904 -0.206783 -0.0224367 0.287134 0.070397 -0.14703 0.0948467 0.190742 -0.454193 -0.41813 -0.0231364 -0.181063 -0.0905841 -0.429431 0.40201 -0.471971 -0.206806 0.356935 0.327688 0.14987 -0.25132 0.180313 0.299736 -0.362153 -0.286209 -0.450775 0.121138 0.331639 -0.0638375 0.09694 -0.167474 0.24243 -0.464284 -0.249807 -0.0817099 -0.316604 0.010489 -0.398388 -0.194139 -0.28011 0.368649 0.40735 -0.0377158 0.0432351 0.426472 0.259311 0.227827 0.0876166 0.117793 -0.241188 -0.225726 0.327178 -0.379515 -0.423034 0.411575 -0.410324 -0.481744 -0.0603222 -0.447494 0.0677063 -0.337205 0.17753 0.177901 -0.489865 0.252664 0.0644171 -0.368596 -0.175646 -0.455489 0.0372325 0.21386 0.295376 0.484591 0.418658 0.214936 -0.475533 0.0913357 -0.482834 -0.098766 -0.131004 -0.058013 -0.170284 -0.465931 -0.441808 0.449581 0.375555 0.34537 -0.181102 -0.146239 -0.427351 0.0107073 0.401528 -0.439875 0.108647 0.108649 0.452869 -0.285007 0.259476 -0.426258 0.329567 0.321726 
300
0.00124258 -0.46274 0.116625 -0.234626 -0.398802 0.242781 0.428639 -0.378823 -0.475536 0.14427 0.023284 0.299924 -0.0672578 -0.12861 -0.342385 -0.212546 -0.215134 -0.015353 0.170058 0.0447408 0.238821 0.119818 -0.364776 0.312584 0.296798 0.321663 -0.250186 -0.194952 -0.0709758 -0.235838 0.277206 0.0529872 0.388688 0.0915507 -0.495848 -0.239557 0.028158 0.157445 0.445481 -0.212491 -0.482441 0.208632 0.385546 0.49741 0.450431 0.37407 0.202264 -0.145958 -0.207092 -0.118101 0.268089 -0.429292 -0.0765036 -0.055217 0.201769 0.254505 -0.279363 -0.0393949 -0.0456316 -0.254445 -0.420581 -0.107493 0.32588 0.415803 0.475383 -0.0133132 0.351186 0.323115 0.489878 -0.240324 0.355997 0.206302 -0.0673875 0.157543 -0.346249 -0.46301 -0.484987 -0.12735 0.286681 0.0579315 -0.367157 -0.481425 -0.363938 0.117634 -0.171386 -0.289466 0.242629 0.0864029 -0.421493 -0.226856 -0.185502 0.388884 0.12655 -0.480433 -0.129817 0.0171343 -0.254638 0.20638 -0.0801042 0.221541 0.160098 -0.314748 -0.289874 -0.187518 0.10022 -0.148924 -0.315581 -0.306765 -0.319149 -0.151865 0.393251 0.375083 0.202309 0.233164 0.310797 0.435353 -0.306686 0.0840237 -0.0604104 -0.119633 0.291686 -0.163188 0.394992 -0.405522 -0.131885 -0.462235 -0.0283788 -0.16028 0.0828397 -0.389439 0.295728 0.423884 0.34288 0.145508 0.384337 0.337843 -0.260226 0.431712 0.176259 -0.377204 -0.397123 -0.158702 0.313552 -0.248054 0.0971877 0.065228 0.497103 -0.109923 -0.295215 0.353695 -0.378353 0.36821 -0.22849 -0.0272767 -0.291916 0.0613788 -0.226772 0.441031 -0.042332 -0.466376 -0.198217 0.170001 0.103766 0.475658 0.312472 -0.223343 -0.122413 0.287957 0.308305 0.015358 0.341819 -0.227269 -0.28507 -0.248337 -0.233019 -0.367333 0.163876 -0.104276 0.242634 -0.0736671 -0.0400879 0.26913 -0.0182524 0.15053 0.377345 0.279772 -0.160794 -0.279451 -0.101762 0.295507 -0.0353801 0.0969127 0.467505 0.499028 -0.20588 0.439176 0.15641 0.326751 0.206086 0.362749 0.418056 -0.0649817 -0.112453 -0.384043 0.39067 -0.382831 0.218137 0.125482 0.390451 -0.151322 -0.436125 0.402981 0.177579 0.0976927 0.108447 0.132367 -0.0949795 0.375466 -0.450701 -0.163544 -0.0571983 0.369034 -0.23677 0.36275 0.153758 -0.274101 -0.000743617 -0.00987265 -0.0637019 -0.372296 -0.274668 0.222317 -0.453941 -0.484653 -0.351024 0.264469 -0.178786 -0.486623 -0.111794 0.423461 -0.494192 0.276076 -0.216321 0.320297 0.2763 -0.449811 0.229065 -0.214496 0.0310825 -0.499914 0.273846 0.241823 0.168403 -0.0260008 0.183378 0.465467 0.478492 -0.392937 0.322448 -0.072811 -0.417012 0.0333406 0.0579497 0.460658 -0.325099 -0.361325 0.290663 0.212896 0.133279 0.402819 0.475877 -0.126337 0.069349 0.282206 0.067714 -0.269938 -0.36606 -0.406571 -0.14307 0.434444 0.185611 0.354698 0.286709 0.360125 -0.31536 0.143807 -0.470842 0.290679 0.0259989 -0.0713897 -0.213094 -0.344324 0.0774247 -0.172197 0.226015 -0.0785254 -0.381303 -0.324827 -0.154566 -0.388258 
300
-0.393577 0.139152 -0.454911 -0.45045 0.281934 -0.268023 -0.169934 0.1558 -0.00473728 -0.317476 0.199638 -0.239894 0.00903437 0.265732 0.157394 -0.307263 -0.454792 -0.368871 0.478484 -0.296545 -0.413423 -0.222966 -0.254354 0.366617 0.491018 -0.106267 -0.142771 0.0686726 0.0495153 -0.161645 0.215679 0.267468 -0.351041 0.232362 -0.0184421 -0.228085 -0.464186 0.470713 -0.440269 0.330902 0.0856952 -0.22012 0.481583 0.174946 0.0724054 -0.0754825 0.31913 -0.0600814 0.00515186 -0.485135 0.351215 0.106829 0.110229 -0.225389 -0.450679 0.410419 0.0121212 0.187225 0.235055 0.0307225 -0.0883372 0.344511 -0.230808 -0.161334 -0.381117 -0.477747 0.326042 0.289538 -0.18555 0.402266 -0.4621 0.137095 0.262926 -0.175329 0.252534 0.186517 0.488831 0.283706 -0.169886 0.474655 0.0463485 -0.433613 0.466455 -0.193299 -0.171747 0.365158 0.229957 -0.367875 0.426096 0.284878 0.418721 0.470815 -0.201421 0.284361 -0.321946 0.379066 -0.0934502 0.199249 0.237506 0.289131 0.0963907 0.0800533 -0.482809 -0.0130003 0.300905 0.309205 0.0136132 -0.211849 -0.336367 -0.180895 0.383109 -0.396453 0.165141 -0.294655 0.028522 0.249135 -0.417585 -0.290331 -0.291282 0.290074 -0.340139 -0.0387848 -0.132656 -0.487203 -0.446909 -0.334451 0.168321 -0.00597371 0.311304 -0.427697 -0.393738 -0.127895 -0.20135 -0.0237996 0.237139 -0.413039 0.276232 -0.166894 0.12246 -0.211644 -0.471002 0.000327399 0.180008 0.298678 0.31004 -0.239973 0.0873961 -0.399753 -0.384956 -0.00441904 0.475403 0.241145 0.249084 0.477677 0.456125 -0.213352 0.2385 0.127633 -0.436112 0.396762 0.48831 -0.0433622 0.376708 0.310562 0.31767 -0.130859 0.0949365 -0.200868 0.238361 0.131751 -0.278597 -0.160048 -0.27281 -0.384079 0.350573 0.39203 -0.168329 0.390071 -0.120713 0.160613 -0.227353 -0.121347 -0.0475793 0.251211 0.219197 0.432221 -0.149449 0.131456 0.284304 0.0221992 0.0871839 0.0155945 0.449073 -0.0554452 0.136849 -0.41763 0.145257 -0.0356811 -0.283284 0.499945 0.292438 -0.113798 -0.329418 -0.328119 -0.34646 0.0682221 -0.37372 0.355194 0.46203 -0.325211 -0.332135 0.139746 0.13704 0.0670002 0.0264047 -0.493534 -0.492344 -0.403504 0.190635 0.390216 -0.0887578 -0.324228 0.316044 -0.340058 0.161196 0.286355 0.235445 0.142194 -0.212162 -0.291592 0.302663 0.494199 0.238347 -0.170093 -0.197456 -0.110762 -0.292691 0.233506 -0.193558 -0.219836 -0.227504 0.44989 -0.389469 -0.175343 -0.261992 0.0400304 0.00907541 -0.229764 -0.217031 0.0331142 0.140653 -0.426802 0.00743934 0.301551 0.356715 0.164298 0.0841425 -0.161651 0.346243 0.4384 0.157944 0.0874268 0.227366 -0.446304 0.200389 0.428722 0.38864 -0.488766 -0.0421958 0.0699778 -0.417895 0.353013 -0.283941 -0.0536104 0.199717 -0.05518 -0.408181 0.245999 0.212279 -0.368072 -0.0259743 -0.0703264 -0.236338 -0.150696 -0.289353 -0.342275 -0.154497 0.347605 0.295827 -0.334966 0.49366 -0.163591 0.233777 0.249185 0.344684 -0.213408 -0.411099 0.120931 0.391136 0.459148 
300
0.122039 -0.146932 -0.392273 -0.138663 -0.405326 0.438837 -0.0954762 0.356017 0.0177758 -0.381501 0.148681 -0.179715 0.197697 -0.252949 -0.433768 -0.382762 0.130294 0.298714 0.388364 0.112501 -0.203604 -0.00024503 0.0131857 0.488557 -0.495407 -0.095719 0.000195281 -0.115858 -0.292701 -0.447183 0.225963 0.214881 0.228915 -0.287871 -0.132373 0.322917 -0.439011 0.0348146 0.244084 -0.357438 -0.0630919 0.339472 0.0132196 -0.210335 -0.202579 0.436004 -0.0270365 0.261852 -0.0670074 -0.339098 0.1085 0.141691 0.30957 -0.15509 0.209327 -0.0131866 0.347247 -0.0220758 -0.367245 -0.196421 0.382896 -0.477195 0.427408 -0.146804 0.19782 -0.205464 0.134034 -0.0880405 -0.352209 0.272042 0.363786 0.476376 -0.417428 -0.270317 -0.40398 0.164027 0.00907962 -0.47047 0.273412 -0.481045 0.472017 -0.129558 0.128525 0.00629119 0.494963 -0.205608 -0.327819 -0.302468 0.144338 -0.490806 -0.145042 0.356354 0.308635 -0.129777 0.0789641 0.161567 -0.123084 -0.321427 0.0613316 -0.486211 -0.241917 -0.305823 -0.200127 0.47876 0.257345 0.245932 0.396162 -0.344418 -0.134768 -0.348956 -0.34694 -0.00994114 0.329391 0.328067 -0.376866 -0.332642 0.345628 0.277427 0.374027 -0.114751 -0.154814 -0.0279183 -0.085261 -0.190178 0.247896 0.250326 -0.166801 0.433529 0.365218 0.0769123 0.0932473 -0.394255 -0.0852459 -0.418145 -0.157031 -0.223711 -0.380893 0.00581405 0.300342 -0.0632835 0.14191 -0.0346073 0.0685118 -0.476446 -0.458094 0.0532527 0.362134 -0.0284507 0.419244 0.407245 0.304963 -0.386146 0.118734 0.292425 0.244113 0.494373 -0.204557 0.209801 0.106576 0.189616 -0.193802 0.496288 -0.0815681 -0.201968 0.359143 0.387153 -0.184626 0.0898454 0.239035 -0.435804 0.13536 -0.183312 0.38411 -0.366722 -0.196741 -0.442454 0.360828 -0.27901 -0.384212 -0.474041 0.170055 0.0293212 -0.153502 0.412679 0.194245 -0.399822 0.0380395 0.489006 0.311336 0.294456 -0.482816 0.47639 -0.353635 -0.128039 -0.0183702 0.0764302 0.228828 0.229674 -0.203708 0.461012 -0.283696 0.365433 -0.466874 0.474668 -0.092969 -0.15283 0.426893 0.192956 -0.409909 -0.00378638 0.00281918 -0.223371 -0.326391 0.0536327 -0.408128 -0.144851 -0.227835 0.0528032 -0.487871 -0.0682898 0.0646407 0.239287 -0.0128443 -0.039285 0.389047 0.180809 -0.430127 0.0246084 0.434837 0.383265 0.104011 -0.0887433 -0.415089 -0.161519 -0.203424 -0.28874 0.137578 0.235235 0.151606 0.370127 0.190518 0.00833891 0.0260556 0.230517 -0.443493 -0.441923 0.0726636 -0.15962 -0.363324 0.174533 -0.379392 -0.400824 -0.124793 -0.179057 -0.439375 0.0801446 -0.371034 -0.338577 0.109242 0.0095307 -0.472785 0.362956 0.187955 0.328924 0.205276 0.171065 -0.163101 0.423746 -0.0111163 0.413454 -0.00986814 0.324598 -0.218602 -0.115858 0.179239 -0.261311 -0.492671 -0.0673549 0.217256 -0.379445 0.228077 0.0919014 -0.034828 0.129999 0.240775 0.171974 0.360428 -0.0501483 0.402435 -0.242564 0.461107 0.480171 0.395903 0.154666 0.350472 -0.0925313 -0.284972 -0.0284648 -0.228039 -0.360954 
300
0.0899434 -0.417985 0.446444 -0.178979 0.432587 0.340914 0.478815 0.355266 0.39921 -0.479667 -0.351193 -0.479622 0.233895 0.0998451 -0.195338 0.264228 -0.473634 0.405413 0.10496 -0.14445 0.17162 0.113035 -0.372772 -0.461055 -0.0732567 0.0573153 0.194095 0.137351 -0.464106 0.275579 -0.275313 0.0967432 -0.340473 -0.167544 0.215213 0.176115 0.0926611 0.129603 -0.262468 -0.408813 0.315274 -0.310459 -0.200287 -0.130096 -0.317738 0.0673064 -0.275633 0.449665 0.156687 -0.295039 0.00229719 -0.427754 -0.402322 0.221004 0.435446 0.310594 0.353981 0.203503 0.372509 -0.40401 -0.209401 -0.440042 -0.314665 0.458978 0.350826 -0.324368 0.341901 0.345716 -0.018583 -0.245836 0.16369 0.290073 0.0881947 0.0891888 0.147849 0.291215 0.371474 0.488249 -0.26025 0.272121 0.183604 -0.462185 -0.182571 -0.392351 -0.117139 0.0159744 0.242844 -0.217932 -0.161924 0.182403 0.442492 0.40384 0.0861485 -0.280147 -0.096917 -0.162756 0.0281451 -0.0880207 0.157566 -0.232338 0.0251238 0.113315 0.499939 -0.132867 0.367929 0.392263 -0.0481878 0.0088483 -0.209041 0.11363 -0.362058 -0.181764 -0.152152 -0.357218 0.483247 -0.427575 -0.241118 0.124905 -0.21347 0.467764 0.273572 -0.119969 0.434516 0.243412 0.110361 0.368305 0.0347234 -0.281073 -0.263352 0.317083 0.164864 -0.0845008 -0.489523 -0.0657341 -0.119626 -0.361925 -0.026132 0.369274 0.430233 -0.153125 0.202662 -0.458807 -0.494308 -0.361928 0.0828497 0.481819 -0.301131 0.0880505 -0.346075 -0.354564 0.340128 0.0620182 0.16781 0.0767507 -0.335398 0.137819 0.0477309 -0.365115 -0.179687 -0.0300711 0.407903 -0.193972 0.0990108 0.281878 0.191675 -0.124349 -0.474952 -0.471093 -0.283651 0.193264 -0.396942 -0.35081 -0.211687 0.176551 0.198599 -0.0806833 -0.228476 -0.118826 0.414055 -0.128498 -0.403981 -0.290178 0.454048 -0.0869644 -0.0975717 -0.0629991 0.454533 0.300105 0.093786 -0.480931 0.387363 -0.4314 -0.452558 -0.481687 0.478316 0.0232722 0.483993 0.198526 0.242271 -0.360949 0.00561295 -0.266534 -0.00250661 0.332906 0.0544424 -0.0789937 -0.227969 0.0573931 0.079258 -0.215054 0.148643 0.32182 0.450449 0.20843 -0.0987996 0.442664 -0.363983 -0.0180995 -0.379694 -0.419072 0.224768 0.02722 0.17194 0.317359 0.452205 0.10673 0.169338 -0.283445 -0.244954 0.483182 0.476529 0.459096 0.403061 -0.1057 0.455041 -0.260256 0.0845229 0.0336776 -0.338647 -0.158799 0.334406 -0.302146 -0.22269 0.401887 -0.0233876 -0.392552 -0.264908 0.246826 -0.226279 0.0457325 0.0933507 0.176989 -0.199403 -0.187698 -0.283245 -0.470246 0.466276 -0.36076 -0.360828 0.29587 0.260224 -0.214146 -0.299143 0.477831 0.285728 0.321177 0.150252 0.324425 -0.155547 0.0864186 -0.339219 -0.0427434 -0.478175 -0.0253236 -0.192108 0.337764 -0.299333 0.44897 -0.469093 0.0750759 -0.0665626 0.291497 0.225918 -0.160998 0.326252 0.148057 0.426916 -0.488615 0.0411276 -0.437472 -0.255647 -0.177756 -0.181626 -0.139409 0.361278 0.351871 0.204457 -0.393248 0.283265 0.438918 
300
0.29826 -0.322756 -0.0218271 -0.35154 -0.318757 -0.384829 0.176296 0.0745307 -0.318824 0.130072 0.499402 -0.0491617 0.222601 0.183098 0.456098 -0.222099 -0.0961291 0.112401 0.0442239 -0.278202 0.254761 0.0291199 0.143047 -0.107313 -0.0356171 0.0373044 -0.280386 -0.320198 -0.0815304 -0.0642391 -0.0476646 0.029205 -0.199324 -0.0509386 -0.0640093 -0.366245 0.33603 -0.245319 -0.0525388 -0.438385 -0.318843 0.134969 0.492722 0.21867 -0.233096 -0.475205 -0.445917 0.0992076 -0.45424 0.113376 -0.31533 -0.209009 -0.44919 -0.366566 0.470889 0.493862 -0.0742224 -0.481585 0.385112 0.45258 -0.398489 -0.113252 0.129958 -0.40778 -0.482611 0.364685 0.0504163 -0.327687 -0.388359 0.33836 0.209193 0.34119 0.0693669 -0.0291278 -0.0254983 -0.17022 -0.191734 0.213957 0.407201 -0.24365 0.052276 0.477568 -0.221042 -0.133548 -0.368515 0.204575 0.375235 -0.250435 0.116731 0.330092 -0.141962 0.0588103 0.3406 -0.395955 -0.208665 0.493891 0.242585 0.461175 0.49211 -0.276135 0.480688 0.251778 0.175649 0.339458 -0.0872354 -0.308865 0.455647 0.124091 0.0923717 0.028156 -0.00386567 0.19517 -0.122683 -0.288088 0.437156 0.367173 0.348894 0.213478 -0.469416 -0.250339 -0.22923 -0.0383202 -0.252233 0.351125 -0.167077 0.367722 0.482789 -0.165412 -0.0888406 0.177805 -0.466861 0.249327 -0.23341 0.432307 -0.359594 0.462947 -0.198636 0.0247868 0.220728 0.113351 0.14264 -0.418247 -0.41152 0.10988 0.231239 0.37522 0.0586757 0.290635 0.114212 -0.113147 0.216562 -0.21653 0.00349768 0.146986 -0.35462 0.258378 -0.0317144 0.028959 0.227165 -0.0658269 0.183731 -0.295202 -0.316865 0.0949684 0.299219 0.493886 0.129687 -0.143316 0.180963 0.00120286 -0.305998 0.140799 0.024949 -0.49086 -0.488677 0.0398916 0.358288 0.368858 0.327218 -0.0796844 0.298594 -0.277393 0.473565 -0.330985 0.396536 0.356975 0.463452 -0.0981503 -0.0801449 0.0791168 0.3215 -0.10557 0.248934 0.350905 0.375548 -0.239779 0.444964 0.329776 0.0604372 -0.165072 -0.076913 0.392425 0.313548 0.319323 -0.399461 -0.310815 -0.259993 0.102679 0.364882 -0.386495 0.120971 -0.375068 0.249311 -0.346693 -0.176325 -0.411139 0.295825 0.118579 -0.299284 0.0162932 0.0110424 0.091088 -0.382515 -0.23557 -0.282617 -0.41002 0.466756 -0.399182 0.373894 -0.426946 -0.27561 0.0928568 -0.378005 -0.461827 -0.248677 -0.145191 -0.490326 0.491242 -0.269791 0.129111 0.214665 0.041 0.308489 0.232724 0.469884 0.138365 -0.48282 -0.20054 0.0879605 0.212509 0.304494 0.199676 -0.0038164 -0.344551 -0.307073 0.191968 -0.41964 -0.495885 -0.491198 -0.331214 -0.0652568 0.379424 0.0831866 -0.0631255 0.468075 0.481298 0.191433 0.0576166 0.0415469 -0.423107 -0.0147972 0.291838 0.0366142 -0.296835 -0.365596 0.125127 0.233459 -0.0456958 -0.145531 -0.0584655 0.179183 -0.000749998 0.120345 -0.301002 -0.0266531 0.216662 -0.323092 -0.423892 0.364922 0.366163 0.235854 -0.175906 0.0319041 0.0728812 0.0319251 0.0610103 0.468467 -0.141401 0.250774 0.165404 
300
-0.158162 0.431551 -0.342654 0.18865 0.499093 0.178706 0.0805614 0.158563 0.206299 -0.4123 -0.345201 -0.420745 -0.362719 0.333184 -0.0476352 0.328276 0.112596 0.391188 -0.139505 0.106544 -0.189882 0.0102588 -0.0395463 0.0400303 0.0200238 -0.230699 -0.460175 0.4551 -0.487658 0.408443 -0.188742 0.4013 0.308997 0.384262 0.402601 0.342241 0.183188 0.495956 -0.358754 0.342748 -0.398194 0.243392 -0.00480055 0.248636 0.0302634 0.118582 -0.376641 -0.262118 0.496672 0.276364 -0.409161 -0.344526 0.423145 -0.165291 0.388729 0.383237 -0.185519 0.496978 0.356772 -0.252138 -0.311778 0.306715 0.388308 -0.216684 0.498313 0.218495 -0.162722 -0.294558 0.133451 0.354802 -0.297028 0.21809 -0.497146 0.291624 0.122881 -0.314239 0.330957 -0.33315 -0.473673 -0.192777 -0.328443 -0.1212 0.00277071 -0.254814 -0.135924 0.154009 0.205764 -0.197775 -0.316836 0.372674 -0.0403956 -0.387889 0.322453 -0.305888 -0.00845348 -0.109601 -0.343576 -0.150548 -0.148474 0.348448 -0.122229 0.102961 0.271098 0.286864 0.269336 -0.180447 -0.137852 -0.224777 0.0826955 -0.367586 0.0841001 -0.468053 -0.0714646 0.211179 0.249144 0.209424 -0.0119864 -0.13066 -0.0518083 -0.244791 -0.458135 -0.167499 0.488927 0.0664994 0.185995 0.387488 -0.0251174 -0.178719 -0.0230765 -0.0247903 0.196687 0.484049 0.270891 -0.091766 -0.299403 -0.363646 -0.426125 0.378514 -0.44172 -0.222164 0.401538 -0.317229 -0.444411 -0.10488 0.167034 0.343082 0.383748 0.413251 0.414589 0.242562 0.111464 -0.384826 -0.433468 -0.323661 -0.427236 -0.212674 -0.192696 -0.284494 0.0450356 -0.176544 -0.482597 0.452971 -0.0131806 -0.259074 -0.337935 0.15681 0.0971967 -0.397028 -0.19522 0.39986 -0.098227 -0.16532 0.244125 -0.247203 -0.405234 0.186218 -0.0642937 -0.281127 -0.480141 -0.254614 0.394822 0.483577 0.248415 0.425897 0.277844 -0.40237 0.271393 0.211357 0.0475472 -0.490131 0.46305 0.164963 -0.194879 0.124031 0.466607 0.467602 0.0697758 -0.198141 0.369696 0.0515196 -0.185422 -0.194953 -0.207575 0.183474 -0.143653 0.401145 0.217725 0.033857 -0.404201 0.37582 0.0404899 -0.466831 -0.302859 -0.178596 -0.431547 0.478324 0.168799 -0.321175 -0.136205 0.34874 0.381622 -0.391706 -0.168135 -0.356435 -0.38299 0.29247 -0.13761 0.479268 -0.199975 0.00377596 -0.265433 -0.411733 -0.38875 0.486492 -0.300505 -0.107136 0.123708 0.430168 0.117784 0.40375 0.407557 0.357159 -0.449415 0.1398 0.252352 0.442885 -0.347799 0.482834 -0.222028 0.318559 -0.387469 -0.301758 -0.0945159 -0.315797 -0.484359 0.39679 0.42336 -0.49796 0.426482 -0.465985 0.0373453 -0.474924 0.341991 0.169233 0.127949 0.115086 -0.359007 -0.246847 -0.0671552 0.17546 0.323267 0.198175 0.0181234 0.478999 0.418939 0.0677353 -0.340433 -0.0345359 -0.37397 -0.110368 0.334987 -0.298575 -0.110824 -0.435538 0.326379 -0.191812 -0.339844 0.46729 0.291947 0.189725 -0.293349 0.234943 -0.351901 0.273028 -0.207002 0.0152739 0.469599 -0.490669 0.371267 0.0948541 
300
0.21289 -0.35353 0.339791 0.223642 0.429952 -0.0532712 -0.123879 0.0844666 0.375039 -0.364886 -0.245609 -0.458415 0.232781 -0.147596 0.330349 -0.460147 0.497194 -0.277729 -0.00582664 -0.424445 0.456967 0.296488 -0.0730132 -0.490954 0.0548269 -0.198914 -0.49798 -0.482598 -0.0514406 -0.319523 0.242121 0.175535 -0.312999 0.193545 -0.316428 -0.447241 -0.306677 -0.352931 -0.140764 -0.353564 -0.164614 0.130956 0.446491 -0.300784 -0.276299 -0.465571 0.0906836 0.0469191 -0.446441 -0.015494 0.380239 0.204961 0.219499 -0.190359 0.08375 0.142197 0.149577 -0.381327 -0.200912 0.131283 0.0849729 0.123642 0.457301 -0.396294 0.176618 0.451215 0.288344 -0.278177 0.317562 -0.457393 -0.383931 -0.204995 -0.0846396 -0.0563831 0.0362213 -0.0694385 0.382645 0.0339684 -0.330699 -0.286867 0.120615 0.311003 -0.35404 -0.214496 0.118757 -0.10192 -0.0016593 0.0183627 -0.330909 -0.0677143 -0.273696 -0.0103814 0.187538 0.33555 -0.260763 -0.0277571 -0.146793 -0.417068 -0.131247 0.154075 0.195491 0.192314 0.222109 0.199928 -0.464429 -0.426901 -0.121453 -0.251645 -0.257034 -0.369913 -0.200678 -0.344076 0.385575 0.0694251 -0.355566 0.428734 0.495724 -0.228332 0.0709111 -0.308355 0.0229783 0.14593 0.250462 -0.286098 -0.18473 -0.285046 0.0514025 -0.25921 -0.00351765 0.328819 0.309112 -0.198921 0.202873 -0.0725731 -0.475947 0.302578 -0.495323 0.127693 -0.47986 -0.0898288 0.209958 0.0577719 -0.0600613 -0.220089 -0.092687 0.293269 -0.331726 0.169869 -0.0351978 -0.108365 -0.18973 -0.464725 0.437675 0.382365 0.235112 -0.399789 0.374088 -0.303081 -0.0170094 -0.151448 -0.400349 0.476983 0.0934197 0.0740635 -0.392442 0.204614 0.0615137 0.0535926 0.448261 -0.146499 0.465039 -0.247871 0.359834 -0.303448 0.102549 0.369256 -0.226219 0.0577592 -0.173215 0.172659 0.102567 -0.392366 -0.382478 -0.416505 0.111613 -0.453343 -0.357912 -0.324652 -0.144145 -0.464377 -0.447445 -0.0413791 0.169669 -0.071762 0.154302 -0.274055 -0.163026 0.365933 0.488056 -0.293587 0.210268 -0.184703 -0.406272 0.498676 0.216614 0.0404224 -0.44924 0.285422 0.380285 -0.221775 0.0450722 0.270493 0.350279 -0.407024 -0.303199 0.337192 -0.240272 0.253303 0.0174025 0.0653175 -0.0532392 0.0736869 -0.267917 -0.216963 -0.0294901 0.39305 0.470588 0.270221 -0.442409 0.403593 0.406311 0.325396 -0.168756 0.228271 0.464077 0.182951 -0.118839 0.0206204 0.0627057 -0.121705 0.431909 0.235541 0.403873 0.431237 -0.0526969 0.488797 0.246549 0.209414 -0.266092 -0.0928223 -0.0427016 0.0383105 -0.175983 0.394865 0.446103 0.388078 0.0683631 0.377826 -0.332572 -0.15435 0.382314 0.0768525 -0.485596 0.184041 0.374923 0.282767 -0.214553 -0.0187672 -0.415677 -0.414532 -0.0320585 -0.293438 -0.453219 -0.0807273 -0.18334 0.128114 0.032661 0.172183 0.460155 -0.0500218 0.325642 -0.0920238 -0.14507 0.0887207 -0.107513 0.155796 -0.167684 -0.203406 0.142861 -0.46306 -0.19109 -0.234939 0.0463804 -0.0221458 -0.495239 0.260046 0.496742 0.359 -0.433182 -0.165348 
300
-0.304132 -0.27313 -0.195885 -0.0163446 -0.38824 0.310298 -0.0547785 -0.392578 -0.00901601 0.400793 -0.124042 0.0869387 -0.230557 0.24445 -0.371517 -0.490565 0.0217461 -0.229854 -0.0893781 -0.231796 -0.449594 0.434896 -0.178627 -0.422343 0.181388 -0.265115 0.388091 -0.245597 0.0201662 -0.292027 -0.407629 0.305136 0.350973 -0.332577 -0.118505 -0.479282 0.459724 -0.294845 -0.369583 -0.332683 -0.284502 0.0701481 0.369648 0.0598661 0.103887 0.22069 0.212108 -0.245267 -0.174746 -0.492485 -0.0683392 0.116092 -0.29161 0.103731 0.341067 -0.135369 -0.0127661 0.261513 -0.344106 -0.388909 0.020811 0.398593 0.0165471 0.280036 0.113068 0.267361 -0.073939 -0.132113 -0.385563 0.460583 -0.254869 -0.290151 0.434112 -0.382241 0.495933 -0.312101 0.35142 -0.192534 0.427373 -0.0812651 -0.0640054 -0.285662 0.289921 -0.0149302 -0.483601 0.34125 0.293387 0.115467 0.172721 -0.101934 -0.314107 -0.491328 0.124768 -0.145944 -0.236583 0.361974 -0.413145 0.417448 -0.295671 -0.339026 -0.447626 0.14983 -0.314755 -0.223961 -0.31752 0.447728 0.398671 -0.0838689 0.47752 0.00502216 -0.494494 -0.22193 0.0909056 -0.152549 0.154147 0.39071 -0.166959 0.43907 -0.0347691 0.265586 0.106512 -0.147833 -0.289482 -0.20289 0.0152522 0.0257009 -0.0535371 0.277632 -0.261577 -0.157539 -0.224255 -0.182953 -0.497998 0.478161 -0.462613 -0.242363 -0.265154 0.239256 -0.307725 0.484576 -0.314355 -0.112951 0.276459 0.0888471 0.0342875 0.410911 0.310138 0.347658 0.439637 -0.267538 -0.48538 -0.167052 -0.0346306 0.44218 -0.0657417 0.020508 0.175139 -0.413277 0.191779 -0.117138 0.456978 0.411048 -0.364338 -0.143339 0.328562 -0.140909 -0.145904 -0.331898 -0.167787 -0.0241804 0.134778 -0.205278 0.293429 0.369222 -0.487006 0.210367 -0.199861 0.117914 0.457059 0.446833 -0.46281 0.116345 -0.278561 0.248419 -0.375714 -0.0430366 0.0942673 0.0545652 0.381873 -0.428677 0.163603 0.0710377 0.342393 -0.171551 0.0245297 0.282437 0.45108 0.204501 0.010095 -0.347229 -0.0915867 -0.331767 -0.4236 -0.286226 -0.15658 0.384398 0.454819 0.219836 0.0937136 -0.296302 0.164465 -0.433935 0.263194 -0.325086 -0.359911 0.347027 -0.213247 0.0851448 -0.437225 -0.357904 -0.495192 -0.35228 -0.315193 0.143104 -0.228172 0.0747245 0.0509119 0.0217279 0.217955 0.0516753 -0.267573 -0.319929 0.195639 0.349866 -0.149519 -0.482555 0.413245 -0.261279 0.377348 -0.168366 0.162502 -0.0941859 0.457665 0.481049 -0.0181856 -0.192135 0.434841 -0.132498 0.453389 -0.287418 0.0456511 -0.479002 -0.211609 0.0980315 0.394212 0.324984 -0.146361 0.476562 0.307563 -0.287847 0.48908 0.259966 0.0171698 -0.445089 0.257685 0.380544 -0.011742 -0.232544 -0.49252 -0.362316 -0.136728 0.247928 0.419394 -0.210728 0.446364 -0.319555 0.254295 -0.448682 0.475507 -0.305948 0.0631031 0.252065 0.00344529 0.0412148 0.167136 -0.153431 -0.174198 0.123079 -0.425354 0.018585 0.436778 -0.464321 -0.138061 0.176464 0.306579 -0.424453 -0.216275 -0.30424 -0.29367 0.483979 
300
0.0918144 -0.141438 -0.420926 -0.118864 -0.0738057 -0.284914 -0.348991 0.103139 -0.140053 -0.497728 -0.425568 0.0278688 0.0176869 -0.22901 0.0861281 0.0762877 -0.438949 -0.0490969 -0.218072 -0.00418529 -0.26494 -0.355082 -0.0858491 -0.259696 0.138879 0.0530137 -0.0114529 -0.261415 -0.0467105 0.331047 0.46187 -0.0186833 -0.227018 0.128689 -0.119397 0.376488 -0.336221 0.113605 0.468973 0.395052 0.191929 -0.324512 0.0955134 0.0932727 0.202861 -0.47245 0.491715 -0.159914 -0.334395 -0.334295 -0.292989 0.267688 -0.173415 -0.015087 0.296216 -0.20332 0.326799 -0.102214 -0.206964 -0.307989 -0.124015 -0.373126 0.0607903 0.337419 -0.163335 0.159397 -0.128775 -0.290266 0.118083 0.196833 -0.271501 0.0753154 -0.0458906 0.22688 0.193059 0.251175 0.262338 0.294161 -0.0432885 0.464696 0.348401 -0.0278892 0.345004 0.172158 -0.254265 0.490059 0.449464 -0.324698 -0.159633 0.378783 -0.278195 -0.165998 -0.117722 0.453967 0.114269 -0.447219 -0.247319 0.0782238 -0.300209 -0.0876093 -0.12581 -0.480039 -0.386919 -0.458244 -0.387678 -0.141882 0.271835 -0.323434 -0.0470886 0.117795 -0.422443 -0.11292 -0.498856 -0.204926 0.184463 0.311932 0.245205 -0.259329 0.384749 0.400251 -0.250362 0.44696 -0.0197079 -0.183694 0.272896 -0.240136 -0.0670388 -0.0129519 -0.0306396 -0.42308 0.0106238 -0.435883 0.337095 0.345146 0.499719 0.235646 0.46858 -0.375643 -0.080301 0.427127 0.0981331 0.124989 0.482916 0.39828 0.0707059 0.191364 0.301464 0.121006 0.480846 -0.461846 -0.407287 0.147113 -0.358965 -0.433407 -0.0786204 -0.0393394 0.1462 0.243692 0.437277 0.251525 0.0924032 0.424858 0.0763188 0.206064 -0.00973345 -0.211711 -0.0890455 -0.236641 0.294487 -0.426861 0.42112 0.431606 -0.417624 0.213142 0.409488 0.484134 -0.304839 -0.0980873 0.145754 -0.265251 0.472634 0.395938 -0.442936 -0.0992498 -0.443127 0.394755 0.0241908 -0.471294 -0.498488 -0.203206 -0.0601892 -0.0736028 -0.35142 0.152744 0.473786 -0.234001 0.258214 -0.338522 -0.347829 0.228432 0.217141 0.256916 -0.148165 -0.388553 -0.468908 -0.299845 0.291391 -0.280137 0.069444 0.337016 -0.172495 -0.362045 0.42748 0.0268622 0.24865 -0.338969 0.419002 -0.310188 0.262445 0.453027 0.367273 0.483511 -0.294741 -0.327274 -0.0157974 -0.125748 0.18583 0.212219 0.0567442 0.0415068 -0.0612443 -0.0169131 -0.13686 0.446932 0.236715 0.316868 -0.435056 -0.086698 -0.282929 0.0614954 0.0385011 0.42298 0.450417 -0.267851 -0.376666 -0.198762 -0.0885167 -0.342844 0.030691 -0.388255 -0.253746 -0.136109 -0.428152 0.0892417 0.0482273 0.0517111 0.462184 0.0406157 0.281231 0.331134 -0.00459267 -0.441208 -0.129744 -0.435212 0.337075 -0.26767 0.236992 -0.249487 0.172947 0.233574 -0.266235 -0.211675 0.266087 -0.233446 0.394117 -0.204993 0.23246 -0.428716 0.042046 -0.46261 -0.314339 -0.013214 0.0900312 0.214245 0.485374 -0.133315 0.281594 -0.382991 -0.151662 -0.448404 0.266572 0.375158 -0.105723 -0.206389 -0.234508 0.286511 -0.0408058 -0.293232 -0.209944 0.0703048 
300
0.0953055 -0.396031 -0.0510973 0.149364 0.277638 -0.121589 0.0370712 -0.0608131 -0.0282206 -0.257289 0.29437 -0.441746 -0.0248306 -0.398877 0.315131 0.353314 0.166989 0.0304533 0.149352 0.357709 -0.17322 0.280263 -0.417821 0.223283 0.404152 -0.130111 0.208933 0.121085 0.102747 0.330087 -0.259021 0.0870299 0.180611 0.384192 -0.332344 -0.396637 0.27436 0.165605 0.103065 -0.379724 -0.48269 -0.106566 -0.0190935 0.0608632 0.151914 0.304734 -0.191126 -0.320395 -0.346102 0.197593 -0.183178 0.0359896 0.196338 -0.471485 0.028362 0.261307 0.344332 -0.330325 0.0317365 0.0967773 0.0148453 -0.225986 0.341408 0.146579 0.220801 -0.475463 -0.376545 -0.17646 -0.131306 -0.0576191 -0.317106 0.403937 0.0303542 -0.14114 0.0830242 -0.0806418 -0.156122 0.419719 -0.211668 -0.445025 0.173931 0.38826 0.478193 0.180649 0.287343 0.0350916 0.20266 -0.0778969 -0.383288 0.23212 -0.211632 -0.415531 0.408027 -0.132066 0.216701 -0.144196 -0.0989253 -0.0247742 -0.388198 -0.115877 -0.414119 0.147968 -0.496701 -0.198026 0.188947 0.0842165 0.454396 0.198211 -0.188525 -0.0839569 0.176308 0.265543 0.444943 -0.250883 -0.0215616 0.293871 0.166137 -0.465724 0.129887 0.461973 -0.413906 0.472486 -0.0438017 -0.252381 -0.172543 -0.479856 -0.21151 -0.411308 0.326164 0.325041 0.158488 0.450392 -0.457498 0.365081 0.14791 -0.060277 0.216495 0.391496 0.319345 -0.420028 -0.485577 -0.213217 0.393414 0.364102 0.134963 -0.100438 -0.306272 0.476708 0.0899881 0.105072 -0.479294 0.399561 -0.416429 -0.0961624 0.139872 -0.275277 0.142567 0.423039 0.434133 -0.287598 0.250405 -0.168367 -0.437661 0.342245 0.343007 0.239297 0.338921 0.159633 -0.161409 0.219707 -0.266307 0.220733 -0.344228 -0.430325 -0.200173 -0.20449 -0.436982 -0.0834129 -0.0688978 0.222272 -0.282649 -0.309412 0.121396 -0.0926493 -0.407403 -0.0170457 0.105594 -0.14772 -0.37151 -0.240247 0.493343 -0.0346726 -0.372479 -0.217338 -0.280997 -0.487299 -0.149247 0.262178 0.239079 0.152944 0.204012 -0.0636328 0.0670061 0.42634 0.475786 -0.250086 -0.297324 0.33739 -0.279098 -0.371266 0.20992 -0.21722 -0.0504885 0.390507 -0.457185 -0.319302 0.410175 -0.438046 -0.102212 0.250871 0.267736 0.15151 0.382817 -0.128282 0.127465 -0.0167272 -0.489539 0.211249 0.34204 0.368001 -0.402446 -0.163225 -0.370392 -0.497621 0.316098 0.247884 -0.460582 -0.47999 -0.34315 -0.0167143 -0.0782119 0.120757 -0.138682 -0.392265 -0.303134 -0.266644 0.279661 -0.44096 -0.220896 -0.283712 0.0599594 -0.406427 -0.135076 -0.497809 0.235781 0.1102 0.00481853 0.214591 0.203231 0.209357 0.416547 0.362988 0.285952 -0.239744 0.311827 -0.382316 -0.243301 -0.419648 0.346951 0.498438 -0.0798331 -0.320983 -0.317271 0.141799 0.404654 0.240611 -0.470199 0.378536 0.0906111 -0.380439 0.0131988 -0.242602 -0.043614 0.447743 0.139079 -0.322929 0.249218 0.364479 -0.346825 -0.282094 0.410512 0.227439 -0.493139 0.167117 0.36842 0.164315 0.216007 0.364158 -0.474166 0.294616 
300
0.303968 0.302377 0.240666 0.204612 0.464321 0.162742 -0.443978 0.40299 0.311069 0.131777 -0.252645 0.458825 0.217482 0.370133 0.323906 -0.490464 0.308047 0.20905 0.0793199 -0.426155 -0.466511 0.33152 -0.184478 0.232976 0.317518 -0.397491 -0.178869 -0.143937 -0.22842 -0.274783 0.13944 -0.391503 -0.298236 0.0688012 0.31588 -0.0180175 -0.0221181 -0.175992 -0.47107 -0.363651 0.309294 -0.1731 0.220576 0.484075 -0.26475 -0.100682 -0.124807 0.115102 -0.161955 0.395248 0.353646 -0.41509 0.433795 0.176389 -0.349416 0.154867 -0.0412979 -0.483172 -0.481151 -0.108582 0.0253198 -0.289345 0.0472146 -0.306138 0.132935 -0.0413003 -0.294266 0.237309 -0.0461674 0.241715 0.201502 0.0190051 -0.0837035 0.330624 -0.295116 0.187674 0.102796 -0.298598 -0.0688627 -0.140751 0.493387 0.382747 0.138682 0.368116 -0.0827573 -0.253113 -0.0540449 -0.366524 -0.215233 0.359811 0.387507 0.0792825 -0.119752 0.251092 -0.0978358 0.255086 0.48326 -0.438483 0.355726 -0.0548005 0.445368 0.200956 -0.100312 0.314946 0.365936 0.0836846 0.0259682 0.422956 0.0626673 0.266028 -0.14315 0.142833 0.406757 -0.271642 -0.175449 -0.0724766 -0.316964 -0.412897 0.0830225 0.0187688 -0.40971 -0.415515 0.0620676 -0.200583 0.449852 -0.321117 -0.234321 -0.256451 0.372118 0.0966922 0.170248 0.447199 0.0400653 0.0340645 0.228809 0.250555 -0.0892048 -0.312401 -0.344349 0.315047 0.00462029 0.473574 -0.496331 -0.21961 -0.155259 -0.3579 0.425701 -0.140349 0.464321 0.376643 -0.0532887 0.448336 -0.355838 0.486959 0.155213 -0.376088 -0.217934 -0.261118 -0.157157 0.194173 0.0122543 0.000890533 0.457965 0.076216 0.0332502 0.43943 -0.0996847 0.207316 0.359747 0.033385 0.045952 -0.104179 0.225595 -0.0605183 -0.0345647 0.0661357 0.0481735 0.460986 0.349605 -0.388895 -0.182819 0.31792 0.0888322 -0.411075 -0.190363 -0.10613 0.136018 0.377188 -0.421523 -0.380643 0.421858 0.492541 0.354262 -0.467673 0.235256 0.496467 0.063307 0.172516 -0.411775 -0.214357 0.33583 -0.358867 -0.191559 0.0160482 -0.334678 -0.329818 -3.36234e-05 0.248238 0.437899 0.442472 -0.266314 0.0321021 0.281147 0.203473 -0.26731 0.148616 0.122819 0.232918 0.36768 -0.15585 -0.0456323 0.182533 -0.390555 -0.198945 -0.316415 0.00265663 -0.461389 -0.0346912 0.0652571 -0.320521 0.279428 -0.303751 0.139042 -0.285858 -0.23566 -0.220999 -0.0775527 0.172124 -0.433033 0.166472 0.0859587 -0.0888502 -0.175869 0.354693 -0.0430135 0.160914 -0.00440067 0.430372 -0.25925 -0.497261 -0.236054 -0.300973 -0.120975 0.315693 -0.0215385 0.303523 -0.275915 -0.207551 0.258974 -0.121444 0.337138 0.493764 0.154995 -0.145211 -0.391241 0.170495 -0.0656573 0.225496 0.247777 -0.378613 -0.379614 0.398994 -0.22345 -0.444038 0.0981703 -0.19427 -0.213279 0.227982 -0.357621 0.296503 0.208311 0.0627086 0.144814 0.431541 0.305925 0.397965 0.212796 -0.496556 -0.292042 -0.285831 -0.199634 -0.357889 -0.183462 -0.127547 0.0127546 0.360507 0.309897 0.440129 -0.0159118 -0.117202 
300
-0.159186 -0.314883 -0.296944 -0.435655 -0.129854 -0.2142 -0.187167 -0.182176 0.494743 -0.221104 -0.0122865 -0.133642 0.133979 -0.296134 -0.312603 0.252813 0.423435 -0.478101 0.143808 -0.385292 0.302288 -0.00874582 0.256229 -0.144497 -0.41397 -0.344536 -0.243467 0.395885 -0.060595 -0.332077 0.41175 0.113675 0.0313697 0.413377 0.0502269 -0.318322 0.384366 -0.272026 -0.404971 0.450776 0.246562 -0.176305 0.0350406 -0.285054 0.10814 0.121115 0.29321 0.406186 -0.0324007 0.267549 -0.164261 0.264547 -0.0586949 0.00861864 0.222309 0.409915 -0.251714 0.0610119 0.376877 -0.0313385 0.483763 -0.0926281 0.00574489 0.466518 -0.201979 0.258128 0.473537 0.393906 -0.467854 0.408041 -0.435264 -0.0802565 -0.373358 0.321186 -0.0470634 0.465913 0.414708 0.474979 -0.0312013 0.150034 -0.448171 0.120323 -0.00431641 -0.0176366 0.234022 0.481261 0.407652 -0.0132951 0.388049 0.346525 0.406647 0.336507 0.228017 0.435387 0.325314 -0.197567 -0.10312 0.138973 0.463464 -0.156668 -0.438618 0.186391 0.158842 -0.404912 -0.493748 -0.431978 -0.316456 -0.338685 0.205819 -0.401844 -0.424871 0.0967191 0.265176 -0.327077 -0.43272 0.341511 -0.129963 0.400363 -0.028649 0.180573 -0.435375 0.395322 0.346758 0.120351 -0.174559 0.372897 0.453956 0.115605 -0.410194 -0.171484 0.451946 -0.240221 0.457953 -0.104537 0.452081 0.250748 0.115991 -0.346461 -0.252005 -0.143978 -0.00973229 0.44892 0.408433 0.190692 0.346497 -0.106857 0.287303 -0.449267 0.0655572 0.389324 -0.0864981 0.23496 0.412469 0.481498 0.0578891 0.40052 0.107951 -0.369958 0.188521 0.119271 -0.384499 -0.0724823 -0.366424 -0.410759 0.30697 -0.102395 -0.0303625 -0.280664 0.418016 0.214554 0.339526 -0.46747 -0.0307298 0.157401 -0.332188 -0.0626219 0.115231 -0.423836 -0.213615 0.37065 0.110618 -0.0146942 0.233546 -0.0874835 0.0707321 -0.2296 -0.124814 0.202747 -0.232454 0.229865 -0.00336216 0.243195 -0.366687 -0.318055 -0.400653 0.167003 0.364267 0.310577 0.225933 -0.363251 -0.121488 -0.126672 0.190349 0.372825 -0.325441 0.0324923 0.216942 0.216505 -0.313045 -0.0483563 -0.434317 0.240255 -0.389515 0.151136 -0.120315 -0.0487622 0.126497 0.0181632 -0.0401143 0.00521873 0.0781663 -0.407141 0.208067 -0.274158 -0.194918 -0.298483 -0.103654 -0.0995162 -0.368631 -0.353322 0.218672 -0.268567 0.263115 0.224341 0.405647 -0.267015 0.331492 0.104446 0.322499 -0.283111 -0.341734 -0.0709079 -0.315485 0.437175 -0.3703 -0.421475 0.258971 -0.410204 -0.0688575 -0.253579 -0.0467051 -0.461367 -0.369603 -0.471306 0.0264032 -0.127576 -0.277808 -0.278472 -0.407982 0.258601 -0.497917 0.223061 -0.353462 -0.489268 0.477097 -0.119644 0.456161 0.166618 0.444053 0.073513 0.287412 -0.40198 -0.43242 -0.0297878 -0.264866 -0.37101 0.430054 0.217891 0.48018 -0.242416 0.127949 0.0671319 0.277444 -0.123114 -0.252287 0.35171 0.202739 0.165375 0.153878 -0.317735 0.0867344 -0.0721171 0.0408865 0.188095 0.225051 -0.106886 0.399863 -0.0393534 -0.271196 -0.0126338 
300
0.22636 -0.0521771 0.383212 -0.26518 0.10748 -0.428063 -0.0253677 0.230093 0.268177 0.337844 0.18806 0.109534 0.237794 -0.455112 0.049397 -0.4382 -0.0461478 -0.458063 -0.387915 -0.489598 0.465928 -0.453399 0.469279 0.038273 0.139804 -0.459763 0.0940521 0.0464868 0.208666 0.194893 -0.461796 0.198075 0.216433 0.266198 0.104696 0.220026 -0.00739919 -0.428836 -0.128841 0.307156 -0.156901 0.0362105 -0.460807 0.0232482 0.295723 -0.426794 0.24193 0.121836 -0.270178 0.101194 -0.0348998 0.129913 0.135197 -0.154251 0.490529 -0.205019 0.130745 -0.286215 -0.393183 0.305149 0.00973534 -0.218718 0.0431816 0.0867743 -0.388278 0.0187902 0.487016 0.0694515 0.11921 0.072287 0.237365 -0.439831 -0.401246 -0.463361 0.380909 -0.0961733 0.100199 0.499845 0.386831 0.151465 0.179485 -0.310392 -0.386077 -0.133278 -0.0517418 -0.220841 -0.437918 0.295002 0.0366823 -0.0775952 -0.340359 -0.384955 0.291659 -0.140231 0.0863142 0.48781 -0.063451 0.497169 -0.344003 -0.0701368 -0.419814 -0.215269 -0.409047 -0.255412 0.00491767 -0.17954 0.0644166 0.306371 -0.35842 -0.127623 -0.0849327 -0.044845 0.304787 -0.48466 0.0680131 0.370177 -0.30594 0.473614 0.343727 -0.0505694 0.0721896 0.0519804 -0.498008 0.494607 -0.0592336 0.43917 0.0277441 0.00792584 -0.14737 0.127193 0.182765 0.464603 -0.476995 0.314541 0.0311672 0.261633 -0.147849 0.390279 -0.100565 -0.0369429 0.0653217 0.41761 0.0978769 -0.256056 0.142783 -0.0995687 -0.471274 0.311025 0.165965 -0.00476891 0.320575 0.0961767 -0.137421 -0.271182 -0.42269 0.203239 0.209269 0.0110749 -0.30666 -0.114711 0.233105 0.0354904 -0.494827 0.0305367 0.489537 0.378182 -0.370683 -0.0937516 0.104362 -0.406387 0.197412 -0.246191 -0.28456 0.493715 -0.194424 -0.337239 0.350253 -0.29831 -0.320833 0.424961 0.0906616 0.178002 -0.0563308 -0.00396654 0.400267 0.29629 0.305684 -0.485759 -0.265095 0.0102908 0.4449 -0.417395 0.222451 -0.126825 0.0641372 0.107334 -0.272174 0.484743 0.369487 0.478819 0.40388 0.110735 -0.166789 0.427657 0.0841798 0.0991064 -0.274856 -0.424836 0.0791345 -0.109449 -0.370612 -0.403476 0.0921515 0.121957 0.363954 -0.0940038 0.338216 0.30668 0.366791 -0.124434 -0.446925 0.110731 0.0448891 -0.100924 0.0133651 -0.364659 -0.141394 -0.0238394 -0.034538 -0.322514 0.272495 -0.376515 -0.209971 0.309868 -0.280144 -0.415797 0.231429 0.426322 0.21986 0.213696 -0.461367 0.454377 0.257318 0.453525 -0.221654 -0.281694 0.35767 -0.287832 -0.151737 -0.029856 -0.0785441 -0.0212318 0.35387 -0.38173 -0.249517 -0.0807673 0.489209 -0.00138508 -0.245098 -0.238274 -0.104376 0.0400728 0.052401 0.270643 -0.427728 -0.415815 0.14927 -0.226281 -0.377349 0.494348 0.0148308 -0.122612 0.389331 0.446353 0.295864 -0.473327 -0.278912 0.304207 0.257546 0.120022 -0.342822 0.0931767 0.18549 -0.0540888 -0.463873 -0.426008 0.00260219 -0.412663 -0.362964 -0.234257 0.284294 0.267656 0.247607 0.348172 -0.00576015 -0.222911 0.319855 0.0114179 -0.228039 -0.149492 
300
0.154509 -0.405247 0.100528 -0.204702 -0.18045 -0.236516 -0.217742 0.0241883 0.35306 0.10686 0.277045 0.342923 -0.443888 -0.204768 0.125399 -0.120343 -0.211446 0.456983 -0.0296695 -0.0612909 0.386549 0.406504 -0.180619 -0.32833 -0.0421599 0.340307 0.327138 -0.406353 -0.395311 -0.0436656 0.430061 -0.46854 -0.379958 0.461295 -0.302249 -0.0691774 0.436617 0.0350867 0.114443 0.0500989 0.0151327 0.396074 -0.0828167 -0.0833952 0.422482 -0.260924 0.277207 0.387028 -0.107676 0.409176 -0.0181067 -0.429312 0.113194 0.312033 0.291015 0.0768707 -0.0442657 0.419405 0.18915 0.478703 0.142937 0.0933665 0.0133059 0.288636 0.336535 0.446476 0.324924 -0.352832 0.0244453 -0.25235 0.242052 -0.29896 -0.399062 -0.336537 0.283346 0.186258 -0.266465 0.462949 0.399432 -0.329534 0.466024 0.03973 0.195846 -0.0391784 0.257216 -0.262644 0.108664 0.479435 -0.295975 0.271415 -0.374462 -0.244189 -0.307964 -0.040193 0.383662 -0.305533 -0.392161 -0.368214 -0.0225164 -0.260787 -0.229758 0.494466 -0.370121 -0.113092 0.334472 -0.0446508 -0.201415 0.417404 -0.228982 0.497811 -0.478554 -0.0691558 -0.498458 -0.0650454 0.346709 0.401344 0.398182 0.330329 0.198809 -0.236929 0.425868 -0.452159 0.361743 0.379471 0.214385 -0.0989474 -0.304289 -0.495222 0.280017 0.17427 -0.172699 -0.342274 -0.274743 0.296253 -0.00302873 -0.228209 -0.278126 -0.0960314 -0.181975 0.0600555 0.146824 0.117166 -0.425832 -0.200185 0.193211 0.485651 0.355415 0.293155 -0.11519 0.338595 -0.0719095 0.422114 -0.447172 -0.422459 0.475437 -0.348106 0.00243224 -0.285353 0.263787 0.355672 0.31312 -0.337347 -0.223372 0.426705 0.195878 0.139274 -0.358941 -0.172503 -0.357265 -0.453163 -0.264837 0.258736 -0.366808 0.481872 -0.138897 -0.397215 -0.333751 -0.283972 0.0605426 -0.350583 0.1775 -0.473443 -0.117089 -0.0539012 0.326435 -0.325872 0.383671 -0.282003 0.241663 0.292084 0.238973 -0.0884724 -0.0769507 0.0646 0.307324 -0.0115649 -0.307109 0.491053 0.319592 -0.0230674 -0.0886598 -0.223647 0.11606 -0.0949072 0.423832 0.426699 0.202192 0.361436 0.139028 -0.0928313 0.254182 0.113106 -0.44479 -0.104919 -0.143056 -0.0323019 -0.282269 -0.147617 -0.377155 -0.286911 -0.22417 -0.104122 -0.353659 -0.340988 -0.376176 0.366521 -0.175003 0.0383807 -0.279096 0.263464 -0.18815 -0.0157593 0.275401 0.104556 0.455436 -0.236588 -0.438674 0.426275 -0.0632089 0.364033 0.257877 0.111202 -0.0276682 0.409143 0.0366416 -0.220331 0.412821 -0.339023 0.466853 -0.39329 -0.390127 -0.418026 0.456267 0.276152 -0.141867 -0.436926 0.00459296 0.310015 0.0793272 0.3795 0.347696 0.124194 -0.00467749 0.0299169 -0.461825 -0.383716 0.376845 -0.121516 -0.0910949 0.198575 -0.425171 -0.0449321 -0.0476948 0.331359 -0.254484 0.00121573 0.477701 0.0198943 -0.475855 -0.422139 -0.119883 0.072501 -0.310582 -0.4257 0.051198 -0.0281351 -0.111046 0.474265 0.0964763 0.4117 0.396232 0.175406 0.050359 -0.00177961 -0.189187 0.482605 0.133559 0.376218 -0.222063 0.462989 
300
-0.268079 -0.0779164 -0.0543176 0.423246 -0.00339649 0.408991 0.404237 0.229688 0.371284 -0.458592 -0.491266 -0.310839 0.257381 0.13416 0.335604 -0.324254 0.342395 -0.28973 0.422577 -0.0369396 -0.260345 0.180019 -0.411961 0.12703 0.164216 -0.384295 -0.0283138 -0.179469 0.154873 0.138825 0.218512 0.160803 0.215578 -0.31857 0.336504 -0.330418 0.418677 0.258602 0.0668044 -0.00655886 0.321336 0.192478 0.149599 -0.494517 -0.49031 -0.0786911 0.0267666 -0.086883 -0.241466 0.0779672 -0.407574 0.0803901 0.40787 0.39406 0.1826 -0.471396 -0.455492 -0.383825 -0.060019 0.122629 -0.126962 0.313408 -0.387052 -0.0825018 -0.0140233 0.174968 0.34532 0.338128 0.0417857 0.17533 -0.392079 -0.440004 -0.13211 0.27313 -0.489957 0.439784 0.0615276 -0.361155 -0.288745 0.0762946 0.483479 0.265639 0.35111 0.298941 -0.450771 -0.478071 0.156157 -0.498459 0.0866675 -0.237677 0.317783 0.102836 0.0523142 -0.369938 0.330271 -0.049045 0.172327 -0.018745 -0.0647466 -0.374535 -0.358422 0.350416 -0.0837528 -0.181957 0.220073 -0.0440561 -0.471326 0.0869172 -0.384102 0.127364 -0.148374 -0.308602 0.291527 -0.101261 -0.246558 0.401283 0.356094 0.334057 0.128425 0.23779 -0.31241 -0.0860352 0.454063 -0.063148 0.0075037 -0.0192202 -0.18745 -0.421131 0.480767 -0.170803 0.154855 0.133806 0.437468 0.161518 0.428805 0.0250895 -0.145564 -0.367925 -0.316716 -0.120039 0.0196417 -0.19508 0.429778 0.436023 0.288481 -0.0228487 0.0566523 -0.121695 0.349959 -0.223866 0.207765 0.355022 0.265296 -0.427774 0.207273 0.0219074 -0.280093 0.0910305 0.309165 0.239777 -0.0399044 0.167134 0.0533683 -0.355026 -0.0129527 -0.247138 0.390236 -0.204014 -0.0630261 0.126591 0.419918 0.203367 0.0772036 -0.180304 0.11307 0.27168 -0.236778 -0.14659 -0.273331 0.271992 0.0211553 -0.0838769 0.232081 0.185672 0.375543 0.419188 -0.161742 -0.279358 -0.438626 -0.116387 -0.451827 -0.488448 -0.256606 -0.398396 -0.136861 -0.0818158 -0.39388 0.271741 -0.444565 0.319208 0.122035 -0.208058 0.325842 0.112051 0.190698 0.0216763 -0.0581101 0.24064 0.276132 0.143841 0.104535 0.375214 -0.441172 -0.303203 0.407259 -0.47174 -0.44027 -0.0713453 -0.208368 -0.248187 0.17788 0.279318 0.458522 -0.184245 0.281171 -0.343274 0.254838 0.429673 -0.43546 -0.349018 0.0526935 0.446949 0.328976 -0.317801 0.455834 -0.287679 -0.444288 0.473793 -0.308445 -0.284461 -0.410238 0.361578 0.00594086 -0.381493 -0.128559 0.355857 -0.0258275 0.160391 -0.165335 -0.057532 -0.2277 -0.329382 -0.0850675 -0.129908 0.429997 0.334245 -0.405685 -0.268112 -0.0349919 0.40077 -0.387041 0.447693 0.313904 0.340115 0.0237518 0.044356 -0.136116 -0.0188725 -0.109576 -0.20936 0.295913 0.394078 0.483009 -0.122452 0.0624701 -0.0855987 0.472759 0.14228 0.14989 0.25852 -0.27097 -0.1694 -0.338474 0.111948 0.165938 0.397268 0.421442 -0.276857 -0.476852 -0.21735 -0.469225 0.48329 0.427563 -0.174213 0.0681687 -0.0179676 0.410352 -0.235458 -0.059684 0.486655 
300
-0.432607 0.0193378 0.13821 0.443988 0.488128 0.109277 -0.043496 0.359401 -0.120439 -0.342807 0.109173 0.43409 -0.408064 -0.121561 0.444406 0.0786939 0.466166 0.0475648 -0.206396 -0.125655 0.397676 -0.0189692 0.466457 -0.390714 0.436851 -0.421504 0.270585 0.150493 -0.360045 0.00114118 0.382424 0.472176 -0.338239 0.198526 -0.497437 -0.178005 0.247676 0.0485502 -0.305243 -0.400886 -0.433931 0.478443 0.230045 0.44854 0.00111108 0.464421 -0.258853 -0.0496354 -0.40542 -0.39316 -0.446459 0.16073 -0.0689489 0.00701806 0.248458 -0.289785 -0.240941 0.284574 -0.412373 0.0291802 0.361155 0.160335 -0.392355 -0.343336 0.461778 -0.322463 -0.294001 -0.211282 -0.308844 0.251083 0.351607 0.0318336 -0.405933 0.108701 -0.454596 -0.04399 -0.319311 0.0149611 -0.22499 -0.415934 -0.112333 0.408375 0.366135 -0.238391 -0.472865 0.480075 0.396612 -0.387899 0.223002 0.351792 0.24963 -0.464161 0.3071 0.112169 0.322169 0.0297938 -0.477685 -0.117385 -0.163612 -0.212561 0.360193 0.218441 -0.248848 -0.162433 0.229311 0.125876 0.476367 0.470421 -0.12136 0.391131 0.435746 0.489596 0.43957 -0.172276 0.321055 0.179563 0.219948 -0.0155913 0.13786 -0.236303 0.325026 0.173428 0.219458 0.32425 -0.278052 0.119678 0.355458 0.24786 0.167998 -0.416694 0.0123695 0.083561 -0.183804 0.317199 0.147779 0.119084 0.423448 0.411423 -0.475632 0.133555 0.0723488 0.00558666 0.109947 -0.388955 -0.102754 0.352528 0.160102 -0.476336 0.116033 0.206342 0.145353 0.235913 0.13448 0.00595656 -0.190352 -0.363411 0.221702 -0.0653041 0.135457 -0.484102 -0.355109 0.203419 0.23806 -0.298503 0.472408 -0.112274 0.318767 0.433886 0.476352 -0.24149 -0.190757 0.0145958 0.0964587 -0.196797 -0.029334 -0.324204 -0.133043 0.418846 -0.0990967 0.0500762 0.099481 -0.414304 -0.431252 -0.408995 0.380513 0.21518 -0.179734 -0.195492 -0.186402 -0.345163 0.355029 -0.0866447 -0.437637 0.418433 0.181682 -0.498217 0.342233 -0.136794 -0.398957 0.0826493 0.345342 0.337019 -0.460969 -0.296789 0.0636177 -0.0783101 0.0389442 -0.0831575 -0.482804 -0.128081 0.373052 0.459048 -0.425085 -0.115375 0.00715429 -0.37162 -0.193691 0.26902 0.157494 -0.0056656 0.288829 0.43209 -0.0481043 -0.287979 0.35325 -0.181221 -0.12593 -0.280118 -0.218861 -0.000439574 0.287593 0.0950922 -0.045312 0.481732 -0.063178 -0.368364 0.205535 -0.064254 0.0854259 -0.0682672 0.0119177 -0.116202 0.0898562 -0.287233 -0.144367 -0.300007 -0.432988 0.275803 -0.479502 -0.485045 0.137195 -0.457719 0.161929 0.376535 0.452322 -0.0371997 -0.371843 0.44922 0.16276 -0.362508 0.239127 -0.418216 0.123852 -0.311277 -0.467646 0.455466 -0.104339 0.0912772 0.346265 0.237466 0.406155 -0.314081 0.178237 -0.104763 0.323186 0.0836856 -0.326258 -0.0581588 -0.109653 0.329276 -0.467723 0.159862 0.220804 -0.000423926 0.483426 -0.425875 -0.140815 0.0516781 0.356897 0.0994032 -0.0332633 -0.0189572 -0.224725 0.0982824 0.322144 0.271767 0.00449816 0.00557562 -0.335632 -0.397082 
300
-0.43547 0.258738 -0.0615323 0.355646 -0.242987 0.31176 -0.301661 0.0748839 -0.378803 -0.338968 -0.402381 -0.242817 0.00461345 -0.158845 0.226482 0.364739 -0.283626 -0.323077 -0.203723 0.168208 -0.183018 0.328779 0.368453 0.191055 0.184237 -0.46214 0.355252 -0.359967 -0.0961467 -0.277502 -0.276768 0.306187 0.0138747 0.249937 0.427528 -0.315975 0.109067 -0.262062 0.409346 0.200367 0.201509 -0.049183 -0.341198 -0.0228888 0.226854 -0.108137 -0.447126 0.0609662 -0.0792702 0.0518502 -0.0373346 0.127804 0.363412 0.327379 0.122734 -0.256167 0.13444 0.210912 -0.200071 -0.0471295 0.339267 0.0356166 0.351928 0.125985 -0.388071 -0.21857 -0.159127 0.315919 0.385728 -0.307398 0.236515 -0.470353 0.0114898 0.314183 -0.0881308 0.315327 -0.424846 -0.397912 -0.481837 -0.320911 -0.308676 -0.079682 0.455127 -0.146514 -0.324544 0.464577 0.195564 0.312459 0.440677 -0.201555 -0.449882 0.182956 -0.172577 -0.218495 -0.121719 -0.274277 0.104729 -0.44427 -0.207719 0.0795726 0.0616189 -0.401595 0.0919604 -0.331736 -0.499527 -0.208379 0.246455 0.0523108 -0.0395794 0.281747 0.499446 0.398663 0.404833 0.00651289 0.241285 -0.25375 0.483914 0.152639 -0.371984 0.0856861 -0.466936 0.0292999 0.391996 0.258979 -0.492999 0.185398 0.0871387 -0.465233 -0.200225 -0.286111 0.470666 0.0245352 -0.436997 0.123877 -0.499039 -0.3011 -0.073024 0.0653758 0.0262285 0.311167 -0.0249922 -0.431345 -0.20555 -0.177281 0.459753 0.293547 0.163418 -0.0635193 0.0874881 -0.190505 -0.412138 0.236003 -0.250867 -0.116082 0.327122 -0.246143 -0.434173 -0.0902472 -0.0695777 -0.0182679 0.163064 -0.111431 -0.394335 -0.287853 -0.101641 0.0611478 -0.240418 -0.200888 0.189579 -0.177063 -0.415425 0.498792 0.426474 -0.448349 0.135296 -0.16697 0.340839 -0.214028 0.0399729 -0.408542 0.193296 0.483682 0.139011 0.327169 -0.479841 0.00865929 0.391978 -0.223017 0.417967 -0.297152 -0.390457 -0.346142 -0.128983 0.442151 0.111288 0.261749 -0.136781 -0.122827 0.0443221 0.0967476 0.379375 -0.367708 -0.450966 0.0653243 -0.443061 -0.0554888 0.470775 -0.296202 0.40109 -0.399747 -0.260608 0.477241 -0.156664 0.364469 -0.326906 -0.327891 -0.385606 0.290255 0.0300876 -0.396442 0.198558 -0.354957 0.0660538 -0.291854 -0.0896165 -0.31625 -0.399839 -0.230586 0.444066 -0.315679 0.0377215 -0.116561 -0.0514961 0.298459 -0.0717589 0.45279 -0.0320563 -0.175131 0.150114 0.485449 0.00957185 -0.215371 0.192414 0.0491688 -0.0383173 -0.114124 0.0346974 0.0434501 0.0892315 0.292996 0.395668 0.468269 -0.14149 -0.46867 0.0106784 -0.205549 -0.296148 0.0413341 -0.352323 -0.275279 0.329564 0.161971 -0.346249 0.36202 0.468365 -0.210485 0.283511 0.427719 -0.475833 0.08379 -0.0518104 0.158361 0.0592477 0.103509 0.402052 -0.296254 0.317374 -0.409989 -0.0220222 -0.20623 0.155252 -0.121084 -0.246108 0.45737 -0.0698527 0.336252 -0.386229 -0.49757 0.437696 0.377439 -0.226699 0.442496 -0.30377 -0.487161 0.126227 0.489742 0.382374 -0.220931 0.13005 0.38183 
300
-0.0264639 0.0754148 0.0372996 -0.195711 -0.0634156 -0.469333 -0.212488 0.121697 0.200843 0.322462 0.487757 0.113498 -0.453406 0.189776 0.0586667 0.222966 0.075895 0.0358831 -0.0965046 0.333179 -0.242021 -0.453425 0.328119 0.490165 -0.447445 -0.13416 -0.41484 -0.465195 0.19032 0.0417834 0.120273 -0.327146 -0.49765 -0.472118 0.465848 0.340866 -0.356807 -0.10265 -0.283185 -0.243098 -0.246539 0.196562 0.113739 0.136837 0.0792951 -0.12406 -0.458652 -0.396091 0.0901237 -0.0656517 -0.0119245 0.350681 -0.396989 -0.0269279 0.133995 -0.0815326 0.0219704 0.311922 0.43107 -0.277987 -0.24229 -0.388972 -0.195704 0.170731 -0.0572818 -0.00262772 -0.305043 0.290583 -0.137704 0.461709 0.280024 0.0216234 -0.280122 -0.391537 0.277627 -0.00973585 0.289445 0.0733261 -0.343736 -0.106752 0.447575 0.0627186 -0.372759 0.334281 -0.37863 -0.360139 0.412074 0.460269 -0.0927904 0.0405309 -0.488478 0.488116 0.285944 0.448439 -0.318379 -0.379911 0.138633 -0.484869 -0.29479 0.45275 0.332934 -0.0346566 0.0805175 0.302048 -0.493538 -0.00855065 0.00475131 0.471797 0.139388 0.0128922 -0.0630621 -0.425927 0.493811 0.206958 0.0295184 0.369108 -0.0539715 -0.434223 -0.0219357 0.275536 0.410121 0.414328 -0.128696 -0.455684 0.137644 -0.125857 0.162004 0.279621 -0.330881 0.266986 -0.230225 -0.10183 0.420644 0.0955316 0.491685 0.196795 -0.332592 0.475577 -0.389947 0.195475 -0.0643297 0.400934 -0.18049 -0.208268 -0.315304 0.441099 -0.350726 -0.37854 -0.373803 0.443156 -0.368832 0.126192 0.0717033 0.119146 0.334156 0.418916 -0.487525 -0.404988 0.350351 -0.383477 0.371803 -0.143319 -0.323262 -0.366777 0.221761 0.402865 -0.128059 -0.139257 0.018176 -0.304025 -0.0710019 -0.135659 -0.159915 -0.455673 0.389654 -0.0815852 0.283536 -0.318853 -0.20272 0.435459 -0.114915 -0.443728 -0.303995 -0.282441 0.0546104 0.201884 -0.215219 -0.0596286 -0.063384 0.263423 0.289266 0.319592 0.106906 -0.201305 0.315762 -0.408216 0.358116 -0.31893 -0.224988 -0.1395 -0.338335 -0.254125 -0.308695 -0.458795 -0.336671 0.0580496 0.241514 -0.417332 -0.181186 -0.481134 0.352392 -0.128947 0.0325504 0.156708 -0.269373 0.149919 -0.320943 0.255363 0.0878876 0.318778 0.0469759 0.0829132 -0.0601434 0.254135 0.249331 -0.186016 -0.0192297 0.436979 0.402292 -0.325287 0.379551 -0.0252316 0.253282 0.107633 -0.336604 0.2634 0.0634592 -0.016807 -0.202657 0.406102 0.479892 -0.332757 -0.144513 -0.435347 -0.123488 -0.254637 -0.283123 0.0415461 0.301836 -0.155862 -0.392676 0.16599 0.0884374 -0.494866 -0.192842 0.351844 0.413959 -0.0315361 0.188786 0.498133 -0.367729 -0.113644 0.45952 0.35274 -0.103031 -0.0166463 0.383427 0.228227 -0.208253 0.0191986 0.41879 -0.156008 0.158701 -0.19312 0.237767 0.228238 -0.423492 -0.408515 0.297608 0.137176 -0.256469 -0.14654 0.0514068 -0.268466 -0.429907 0.498313 -0.428246 -0.456907 0.367503 0.161113 0.0530273 -0.0588649 -0.150952 -0.0458981 0.205416 0.00863435 -0.429644 0.182667 -0.130849 0.314288 
300
-0.215428 0.115888 0.0159164 0.0512954 -0.242056 -0.142703 -0.117118 0.0463329 0.104351 -0.072468 0.105183 0.494296 0.112357 0.199002 0.429259 -0.421386 0.164694 0.198497 -0.01823 0.262911 0.362448 -0.224751 0.458435 0.406279 -0.285896 -0.456097 -0.154463 0.290761 0.168957 0.496044 -0.170656 0.0708839 0.434774 -0.332467 0.161796 -0.322797 0.403817 -0.338794 -0.0491135 -0.0093757 -0.332903 -0.245443 0.442643 0.296192 0.410839 -0.159793 -0.0259 -0.298592 0.460171 -0.0389045 -0.0780047 0.488783 -0.160775 0.197325 -0.0732099 -0.450407 -0.279438 0.424801 -0.39726 0.470738 0.390393 -0.0552453 -0.45143 0.0236474 0.405356 -0.465748 0.230063 0.302907 0.0597326 -0.0731107 0.0477295 0.100756 -0.340633 -0.440344 0.0616998 0.18449 0.21398 0.323541 0.383194 -0.272795 -0.46956 0.403361 -0.106191 -0.28157 0.268739 0.169073 -0.141192 0.450758 0.198281 0.392985 0.198141 0.352463 0.0730588 0.305052 0.281684 0.420725 -0.0853689 0.268167 0.215277 -0.315453 0.3376 0.19976 -0.238268 0.131177 -0.446452 -0.194869 0.432003 -0.330735 -0.11028 0.420733 0.47892 0.224841 0.0571806 -0.398006 -0.308266 -0.203181 -0.112253 -0.0811164 0.187891 0.498513 -0.319578 0.029866 -0.152148 -0.18107 -0.243996 0.392102 0.334448 -0.239176 -0.111914 -0.301141 0.44124 0.29534 -0.159537 0.153412 -0.187022 0.185834 0.431472 -0.490706 -0.437883 0.474989 -0.47667 -0.197786 0.263298 0.321734 -0.173804 0.495846 0.389973 0.224402 0.242687 0.419743 0.244024 0.403246 0.487597 -0.49101 0.277162 -0.113444 -0.367342 -0.329159 0.402153 0.333578 -0.373911 0.180217 0.228799 -0.206159 -0.0347583 -0.428538 0.391281 0.404923 -0.253898 -0.115517 -0.398766 0.103848 -0.286441 0.322047 0.355183 -0.197795 -0.13226 0.126556 0.349227 -0.230994 -0.260606 -0.312704 -0.193523 -0.165662 -0.260922 -0.360867 0.235655 0.415315 -0.205145 0.14532 0.119678 0.194203 -0.0653944 0.0375711 0.0447673 -0.0740525 -0.417235 -0.257313 0.231039 -0.301828 0.312337 -0.413426 0.256135 0.440016 -0.390873 -0.369233 -0.449627 0.331862 0.267922 0.269207 -0.23829 -0.421142 -0.306779 -0.477446 0.080182 -0.202024 -0.319484 0.342312 0.0576481 0.0198304 0.303469 -0.0172911 -0.0425535 0.292646 -0.0656846 -0.182026 0.169908 0.100436 -0.433063 -0.41704 0.205204 -0.292797 -0.189842 0.377156 -0.219439 0.469809 -0.127364 0.166798 -0.244092 -0.300163 0.175314 0.23538 -0.00687987 0.0640219 -0.118167 -0.496353 0.104698 -0.209528 -0.298435 -0.225645 0.253236 -0.20168 -0.490049 -0.406476 -0.369472 0.301035 0.0476679 -0.187017 -0.0315986 -0.447022 0.161834 0.191997 -0.319518 0.321829 0.374598 -0.435668 0.286615 -0.436028 0.406272 -0.382435 -0.0626801 -0.453726 0.460334 -0.376212 0.269084 0.20875 0.0115235 -0.479929 0.294065 0.421009 -0.0950684 -0.0852692 0.00626215 0.351579 0.327014 -0.0312296 0.226276 0.413725 -0.00934856 -0.442148 0.425595 0.165063 -0.146974 0.378121 -0.0930453 -0.197871 0.0989756 0.102766 0.459856 0.348899 
300
0.397259 -0.278546 -0.0594717 -0.386556 -0.310852 -0.0950436 -0.412734 0.44945 0.0431288 0.438523 -0.230538 -0.390858 -0.129606 0.0256661 0.263785 -0.474191 0.17604 -0.429543 -0.444666 0.137512 0.0215337 0.126591 0.382036 0.0840541 -0.395265 -0.419319 -0.238226 0.227681 0.477985 -0.300835 -0.110141 0.0546608 0.00428742 0.368778 0.299067 -0.0630993 0.4101 -0.403162 0.175787 -0.0455404 0.112721 -0.45622 -0.355196 0.204541 0.168127 0.204308 0.494744 0.16081 -0.145058 0.060264 -0.203148 0.337785 -0.107031 0.440198 0.13329 -0.392005 -0.0858123 -0.0343801 -0.275409 -0.250083 0.349732 -0.428682 0.332206 -0.168846 0.460528 -0.462431 0.0960513 -0.395306 -0.21036 -0.350527 0.256122 0.4777 -0.337339 0.389403 0.0935236 0.10386 0.354084 -0.0730387 -0.44793 0.0428038 0.347716 0.301043 0.211963 -0.136644 -0.211718 0.097135 -0.315556 -0.059188 0.0139981 0.424612 0.148329 0.3223 0.0596423 -0.00783308 -0.130618 0.355037 0.144029 0.423592 0.105946 -0.0149758 -0.163034 -0.39402 -0.350363 -0.216038 0.285186 -0.221998 -0.27204 0.201437 0.172108 0.392155 -0.0692594 0.342116 -0.290693 0.2482 -0.2013 -0.252835 -0.0746343 0.217957 -0.401339 -0.128033 -0.310001 -0.469395 -0.384019 -0.415334 -0.219138 0.433689 0.404474 0.229368 -0.468143 0.237776 -0.313641 -0.376514 0.250491 0.150079 0.0545536 -0.23225 -0.259938 0.492517 -0.464763 -0.265995 -0.144269 0.401957 0.0936579 0.151917 -0.13561 -0.0113546 0.262621 0.229031 -0.208515 0.144906 0.178233 -0.479359 0.434328 -0.0123939 0.0478956 0.450638 -0.252542 0.369439 -0.394153 0.173246 0.145683 -0.0570031 0.289033 -0.276651 -0.0650322 -0.243183 0.14779 0.401155 -0.269442 -0.392332 0.149205 0.204662 -0.0260683 -0.0251654 -0.434668 0.185871 0.43663 0.419137 0.49547 -0.309482 0.0742012 -0.275438 -0.146721 0.270238 0.183824 0.459999 -0.429207 -0.144422 -0.182994 0.0291227 -0.313282 -0.0487249 -0.411356 0.217394 -0.294412 -0.365624 0.383114 0.305315 -0.0740966 0.211047 0.207314 -0.484192 -0.24535 -0.162203 -0.15374 -0.398626 0.405537 -0.223586 -0.035421 -0.0624896 0.283031 0.259716 -0.153003 -0.0042328 -0.197002 0.113308 0.289411 0.494377 0.488014 0.481155 -0.438462 -0.101841 0.499652 0.350711 0.355255 -0.384677 -0.297124 0.123047 -0.296938 -0.451699 -0.188019 0.0472785 0.15068 -0.474861 -0.396324 0.0262885 -0.11781 -0.459763 -0.289269 0.0778345 0.471892 -0.0560799 -0.102968 0.226801 -0.268463 0.0176679 -0.10856 0.416916 -0.395677 0.389175 -0.380624 0.0258201 -0.325906 -0.0480991 -0.278653 -0.155962 0.116319 -0.174195 -0.0748664 -0.163351 0.0421114 0.365174 -0.0539709 0.0688117 -0.348527 0.121356 0.442105 -0.280733 -0.231968 0.20371 0.426376 0.150457 -0.293099 -0.159261 -0.154904 0.216163 -0.257876 -0.167164 -0.130718 0.290271 0.0139274 -0.32857 -0.0994936 0.448672 0.403834 -0.218036 0.00776027 0.276678 0.486286 0.0544741 0.325873 0.116924 -0.370712 -0.428452 0.0608908 -0.314938 -0.0356935 -0.00617222 -0.0370084 0.269163 
300
